tree
version=v3
num_class=1
num_tree_per_iteration=1
label_index=0
max_feature_idx=8
objective=binary sigmoid:1
feature_names=rank fullname_length family_length given_length family_order_score given_order_score family_length_score given_length_score given_startswith_specific_kanji
feature_infos=[0:39992] [2:7] [1:6] [1:6] [0:2.0128204822540283] [0:2.1474652290344238] [0:2.6562728881835938] [0:3] [0:1]
tree_sizes=3418 3400 3400 3398 3408 3415 3414 3409 3421 3416 3428 3431 3424 3426 3442 3440 3459 3445 3453 3446 3464 3472 3456 3481 3471 3457 3460 3484 3430 3466 3469 3479 3450 3490 3480 3465 3493 3461 3467 3485 3493 3479 3492 3502 3484 3506 3496 3490 3503 3486 3484 3473 3471 3475 3456 3451 3495 3511 3478 3495 3486 3484 3507 3503 3479 3509 3499 3484 3501 3526 3512 3520 3502 3503 3508 3486 3485 3486 3522 3507 3483 3477 3472 3500 3486 3443 3458 3494 3489 3456 3456 3465 3499 3482 3511 3501 3492 3476 3499 3514 3410 3518 3434 3472 3468 3489 3481 3511 3486 3454 3469 3458 3419 3475 3462 3486 3456 3488 3474 3507 3418 3510 3427 3505 3480 3469 3459 3521 3436 3465 3498 3426 3423 3463 3425 3463 3467 3468 3429 3471 3464 3442 3445 3396 3453 3444 3451 3474 3472 3465 3392 3472 3423 3445 3457 3431 3483 3506 3443 3461 3421 3418 3419 3431 3468 3461 3444 3411 3465 3459 3438 3448 3444 3488 3483 3434 3433 3472 3417 3461 3433 3506 3443 3414 3455 3477 3402 3417 3447 3460 3448 3477 3464 3499 3507 3433 3456 3473 3441 3490 3454 3446 3430 3461 3440 3420 3453 3422 3456 3427 3410 3453 3473 3485 3454 3440 3441 3420 3408 3396 3411 3417 3418 3405 3408 3410 3415 3425 3447 3422 3427 3447 3443 3417 3416 3407 3431 3413 3422 3422 3470 3444 3421 3438 3466 3448 3500 3465 3505 3495 3494 3418 3429 3420 3462 3419 3467 3449 3423 3455 3490 3491 3546 3420 3460 3458 3532 3451

Tree=0
num_leaves=31
num_cat=0
split_feature=6 7 0 8 7 0 4 3 5 7 3 5 1 0 5 2 4 5 4 6 7 7 6 7 4 0 8 1 6 1
split_gain=1.45168e+06 73635.6 40260.9 26521 14694.3 4620.71 3554.98 3331.75 2525.25 3927.44 2251.4 18439.9 2141.17 1485.3 1221.02 895.24 850.874 640.589 862.401 470.43 435.117 368.459 363.112 356.359 545.416 355.759 362.04 345.42 287.345 252.643
threshold=0.83378520607948314 1.6360965967178347 inf 1.0000000180025095e-35 1.3102748394012453 16.500000000000004 0.98395416140556347 3.5000000000000004 0.97439289093017589 0.98105022311210643 2.5000000000000004 0.30654843151569372 2.5000000000000004 15793.000000000002 0.51967516541481029 2.5000000000000004 0.98760548233985912 0.94954884052276622 0.82806611061096203 0.018089647404849533 0.011220429558306934 0.45123709738254553 1.9163694381713869 1.0462821722030642 0.78192934393882763 18.500000000000004 1.0000000180025095e-35 4.5000000000000009 0.4152232706546784 4.5000000000000009
decision_type=2 2 8 2 2 10 2 2 2 2 2 2 2 8 2 2 2 2 2 2 2 2 2 2 2 8 2 2 2 2
left_child=1 8 3 7 6 15 22 10 12 -10 -2 16 -1 19 -7 -3 -12 18 27 -11 -8 -18 -4 24 -13 26 -14 -6 -15 -24
right_child=2 5 4 -5 17 14 20 -9 9 13 11 23 25 28 -16 -17 21 -19 -20 -21 -22 -23 29 -25 -26 -27 -28 -29 -30 -31
leaf_value=-0.37664860913805359 -0.37837082111833437 -0.49058138651028049 -0.80424641212493875 -0.81724441798920333 -0.55393721544008778 -0.74467881748457831 -0.71598479736503351 -0.81961978482164255 -0.80992509797825996 -0.59505296296435917 -0.79968737245317345 -0.65933002865518198 -0.4413678199530463 -0.77221650408081743 -0.38684807806733024 -0.78843166366391337 -0.73275678315419679 -0.38078719293148916 -0.39761814296031978 -0.39060047504781942 -0.43630478040440562 -0.42760922287955028 -0.45632534408297876 -0.37890256889352492 -0.41372334968084751 -0.82242023958289867 -0.8236156588290976 -0.78288973175018695 -0.50314871754117918 -0.77827117552710767
leaf_weight=107.83792361617088 108407.09307193756 136.9228407740593 3459.0915706008673 1428.2931625843048 200.23846812546253 97.54633754491806 66.895309463143349 175.18069334328175 1679.9895610660315 157.50601291656494 1199.4172375649214 108.95657427608967 49.444359168410301 243.19465346634388 4255.1233801990747 383.69717635214329 68.237690255045891 1183.9798584580421 348.12408536672592 394.21249255537987 330.22567480802536 94.190385565161705 51.457930356264114 11712.719869613647 531.35906346142292 242174.44406449795 49.668089300394058 98.217527940869331 47.430787980556488 46.312137320637703
leaf_count=482 484544 612 15461 6384 895 436 299 783 7509 704 5361 487 221 1087 19019 1715 305 5292 1556 1762 1476 421 230 52352 2375 1082440 222 439 212 207
internal_value=-0.672576 -0.813449 -0.400885 -0.388829 -0.658745 -0.428544 -0.767192 -0.383825 -0.821109 -0.721567 -0.3832 -0.421374 -0.822144 -0.545345 -0.394867 -0.710097 -0.770599 -0.424503 -0.504552 -0.448968 -0.483417 -0.555805 -0.798875 -0.382874 -0.455516 -0.822343 -0.632923 -0.629282 -0.728304 -0.608826
internal_weight=0 249777 129510 123725 5784.54 4873.29 3953.98 122297 244904 2522.33 122122 13714.9 242381 842.344 4352.67 520.62 1361.85 1830.56 646.58 551.719 397.121 162.428 3556.86 12353 640.316 242274 99.1124 298.456 290.625 97.7701
internal_count=1695288 1116421 578867 553012 25855 21782 17673 546628 1094639 11274 545845 61301 1083365 3765 19455 2327 6087 8182 2890 2466 1775 726 15898 55214 2862 1082883 443 1334 1299 437
is_linear=0
shrinkage=1


Tree=1
num_leaves=31
num_cat=0
split_feature=6 7 0 8 7 0 4 3 5 7 1 3 5 0 5 2 4 6 4 5 1 7 0 5 4 8 7 6 7 0
split_gain=1.14045e+06 60988.6 27860.9 19151.2 11387.5 3272.76 2947.29 2404.08 2297.24 3306.17 1753.37 1449.2 13274.1 1113.05 863.733 721.736 633.532 458.044 448.747 536.395 435.47 490.271 314.227 312.522 353.957 284.845 254.142 248.503 219.64 1271.18
threshold=0.83378520607948314 1.6360965967178347 inf 1.0000000180025095e-35 1.3102748394012453 16.500000000000004 0.91626983880996715 3.5000000000000004 0.97439289093017589 0.89651119709014904 2.5000000000000004 2.5000000000000004 0.2749114483594895 15793.000000000002 0.51967516541481029 2.5000000000000004 0.98760548233985912 0.018089647404849533 0.28709951043128973 0.94954884052276622 3.5000000000000004 0.81257933378219616 18.500000000000004 0.47597426176071173 0.95951774716377269 1.0000000180025095e-35 0.45123709738254553 0.4152232706546784 1.3102748394012453 35796.500000000007
decision_type=2 2 8 2 2 10 2 2 2 2 2 2 2 8 2 2 2 2 2 2 2 2 8 2 2 2 2 2 2 8
left_child=1 8 3 7 6 15 -4 11 10 -10 -1 -2 16 17 -7 -3 -13 -11 19 -6 -8 -22 25 24 -14 -12 -18 -15 -24 -30
right_child=2 5 4 -5 18 14 20 -9 9 13 22 12 23 27 -16 -17 26 -19 -20 -21 21 -23 28 -25 -26 -27 -28 -29 29 -31
leaf_value=0.24573920970294738 0.24439335855153815 0.1551070086779196 -0.12492213091979176 -0.13745672933785316 0.0015455891674887206 -0.06659185371287997 0.23866596020068612 -0.13984897139149874 -0.13557742611764015 0.047737318363418491 0.19469788208742989 -0.12232070102552334 -0.013668783588603396 -0.094394812801846514 0.23775980049059667 -0.10881678463038982 -0.05533486585987351 0.23457211086947716 0.23369323575488582 0.22629333318398343 -0.036384389549545017 0.2063328414250091 -0.14305457837733765 0.24272401911247693 0.22500402092288116 -0.14388420924246667 0.20215121010060205 0.14741377250418039 0.042780794882014021 -0.14079829156671164
leaf_weight=116.32539707422256 116901.79642963409 144.15141177177429 3259.1632040888071 1356.5952816009521 205.76216161251068 95.182957947254181 206.81920626759529 166.23371390998363 1537.3039462566376 186.65439641475677 52.644260182976723 1127.0101436376572 101.57201455533504 253.48816493153572 4581.2057015001774 368.4605834633112 66.865562424063683 441.80384215712547 1526.9274429827929 219.44847226142883 218.78434275090694 134.31057596206665 226160.2551933527 13076.77040605247 160.04009535908699 47.058164030313492 89.830671548843384 51.060865521430969 432.20373797416687 2963.2889257669449
leaf_count=482 484544 612 15245 6384 908 436 879 783 7214 823 221 5268 439 1174 19019 1715 305 1845 6364 910 973 576 1066429 54245 668 222 376 218 2038 13973
internal_value=0 -0.133795 0.227019 0.23635 0.0119181 0.205271 -0.0885105 0.240201 -0.141371 -0.0454515 -0.142402 0.240681 0.211001 0.103048 0.231565 -0.0345989 -0.0961258 0.179081 0.208392 0.117536 0.123435 0.0559406 -0.142598 0.240559 0.132338 0.0348918 0.0922765 -0.053853 -0.142676 -0.117431
internal_weight=0 237431 138818 133047 5771.22 5189 3819.08 131690 232242 2470.31 229772 131524 14622.1 933.007 4676.39 512.612 1283.71 628.458 1952.14 425.211 559.914 353.095 229655 13338.4 261.612 99.7024 156.696 304.549 229556 3395.49
internal_count=1695288 1116421 578867 553012 25855 21782 17673 546628 1094639 11274 1083365 545845 61301 4060 19455 2327 5949 2668 8182 1818 2428 1549 1082883 55352 1107 443 681 1392 1082440 16011
is_linear=0
shrinkage=0.1


Tree=2
num_leaves=31
num_cat=0
split_feature=6 7 0 8 7 0 4 5 7 3 1 4 7 3 0 5 5 5 7 1 6 0 7 3 5 7 0 4 2 7
split_gain=928399 51663 20856.4 14731.6 9119.75 2867.93 2488.63 1886.5 2613.03 1848.49 1474.75 1139.98 3465.64 2550.73 852.834 754.064 673.316 381.664 366.093 417.083 353.334 336.52 339.866 299.539 5300.74 282.681 269.572 233.473 365.845 235.692
threshold=0.83378520607948314 1.6228618621826174 inf 1.0000000180025095e-35 1.3102748394012453 35354.000000000007 0.91626983880996715 0.97439289093017589 0.89651119709014904 3.5000000000000004 2.5000000000000004 0.73844999074935924 0.93618124723434459 2.5000000000000004 15793.000000000002 0.94954884052276622 0.47597426176071173 0.3757446557283402 0.040459308773279197 4.5000000000000009 0.018089647404849533 10486.500000000002 0.048339709639549262 2.5000000000000004 0.12381811067461969 0.63856130838394176 18.500000000000004 0.28709951043128973 2.5000000000000004 1.5617998838424685
decision_type=2 2 8 2 2 8 2 2 2 2 2 2 2 2 8 2 2 2 2 2 2 10 2 2 2 2 8 2 2 2
left_child=1 7 3 9 6 16 -4 10 -9 11 -1 12 13 21 20 -7 -3 -6 -8 -20 -10 -2 -23 -13 -25 -26 -12 28 29 -19
right_child=2 5 4 -5 17 15 18 8 14 -11 26 23 -14 -15 -16 -17 -18 27 19 -21 -22 22 -24 24 25 -27 -28 -29 -30 -31
leaf_value=0.21398644832954239 0.17066841976081171 -0.078830384258432501 -0.11860705643250016 -0.13139000549438251 -0.04539722651475582 -0.1149178345813316 -0.040251572692703318 -0.12942404495303758 0.037622729325280553 -0.13384554846053562 0.029345745468922241 0.21375142724917906 0.2071286667665278 -0.12102790381447096 -0.055997153945350299 0.12247003134167439 0.20719251523806004 0.027356513670095409 0.20824179377592325 -0.014114519176142346 0.20291001850719081 -0.082826168179236145 0.11915497263886493 -0.10436531303979889 0.08803305641756165 0.21269261449009355 -0.13677214894953704 0.20775319165584238 -0.14249314633577909 0.20855876346927255
leaf_weight=119.98521155118942 808.36702799797058 83.753687813878059 3097.8110082298517 1281.2019238471985 71.331241503357887 381.69378547370434 128.45690074563026 1453.6761356294155 184.62295401096344 156.80679903924465 97.732163861393929 113450.87781517208 6738.3385322540998 583.81644780933857 284.11375966668129 206.04391297698021 4752.5932330489159 100.62185277044773 330.31974942982197 113.28950315713882 431.85617524385452 119.46310758590698 275.26291039586067 555.92070896923542 184.51373916864395 12868.792338714004 216169.94875584543 1541.3277623653412 46.280090928077698 250.44973532855511
leaf_count=482 3248 393 15245 6384 305 1816 575 7214 803 783 439 455843 27100 2820 1334 906 19132 429 1359 494 1744 480 1106 2690 789 51769 1082158 6213 211 1024
internal_value=0 -0.127974 0.198329 0.206112 0.0105572 0.176891 -0.0832195 -0.135534 -0.0465012 0.209298 -0.136503 0.209695 0.174295 0.0504832 0.0873473 -0.0316965 0.202239 0.181775 0.108408 0.151456 0.15341 0.133711 0.0580257 0.21207 0.198051 0.210931 -0.136697 0.190133 0.121785 0.156624
internal_weight=0 224166 142703 137023 5679.89 5424.08 3669.88 218742 2354.27 135742 216388 135585 8525.25 1786.91 900.593 587.738 4836.35 2010.01 572.066 443.609 616.479 1203.09 394.726 127060 13609.2 13053.3 216268 1938.68 397.352 351.072
internal_count=1695288 1116421 578867 553012 25855 22247 17673 1094174 11095 546628 1083079 545845 34754 7654 3881 2722 19525 8182 2428 1853 2547 4834 1586 511091 55248 52558 1082597 7877 1664 1453
is_linear=0
shrinkage=0.1


Tree=3
num_leaves=31
num_cat=0
split_feature=6 7 0 8 5 0 4 5 7 3 1 4 7 1 0 2 5 6 7 1 7 0 4 0 8 4 7 0 7 7
split_gain=772786 44329.5 16386.2 11772.7 7531.6 2287.2 2225.91 1730.65 2241.51 1476.82 1260.2 893.624 2737.34 2100.94 709.098 569.608 569.505 304.972 276.059 281.22 264.284 1272.7 413.932 678.807 343.46 263.618 309.652 259.535 285.909 247.253
threshold=0.83378520607948314 1.6228618621826174 inf 1.0000000180025095e-35 0.72739687561988842 16.500000000000004 0.95005935430526745 0.97439289093017589 0.85684365034103405 3.5000000000000004 2.5000000000000004 0.73844999074935924 0.98105022311210643 4.5000000000000009 15793.000000000002 2.5000000000000004 0.47597426176071173 0.017184634692966941 0.011220429558306934 4.5000000000000009 0.96371442079544078 560.50000000000011 0.77799066901206981 913.50000000000011 1.0000000180025095e-35 0.21505613625049594 1.6091089248657229 10486.500000000002 0.03277536295354367 1.3102748394012453
decision_type=2 2 8 2 2 10 2 2 2 2 2 2 2 2 8 2 2 2 2 2 2 8 2 10 2 2 2 10 2 2
left_child=1 7 3 9 6 15 29 10 -9 11 -1 12 13 27 17 -3 -7 -10 -8 -20 -12 24 -23 -24 -22 26 -6 -2 -29 -4
right_child=2 5 4 -5 25 16 18 8 14 -11 20 -13 -14 -15 -16 -17 -18 -19 19 -21 21 22 23 -25 -26 -27 -28 28 -30 -31
leaf_value=0.19202802720108747 0.15132802319060135 0.12510225439861714 -0.11554098036155541 -0.12619822358701416 -0.004213118684546456 -0.076313570220429908 -0.05626319377596415 -0.12589386340085329 0.027255472703871728 -0.12875499868333981 -0.13262460467429979 0.19025684618982386 0.186494627734486 -0.1116951296945493 -0.053071311107049657 -0.10233229833370527 0.18483361347315405 0.18037967439564923 0.18159923143500481 -0.010365981022925628 0.14738729897800043 -0.12455684359027414 -0.094441478867602915 0.36374719473058037 -0.13365104099549013 0.18709262798348031 0.17714443526547743 -0.09089953077890367 0.10246885986553889 0.015622035360946918
leaf_weight=120.29232206940651 858.35054868459702 154.52796140313148 2906.764492854476 1204.4818968772888 173.68361642956734 84.982780084013939 83.7479258030653 1347.346708804369 183.24623169004917 147.20114806294441 191115.13258527219 127415.86172349751 6688.53159481287 565.53760334849358 289.46315830945969 383.17949056625366 4811.4397831857204 448.20862141251564 362.30206194519997 96.677103295922279 226.49243023991585 11118.413383722305 110.83860832452774 45.651245802640915 53.818528726696968 1552.2892299443483 205.58432753384113 101.55198606848717 309.5123096704483 151.19619886577129
leaf_count=482 3439 637 15060 6384 798 412 385 7102 794 783 1021098 511091 26800 2865 1394 1924 19274 1805 1461 409 1142 59249 592 230 286 6261 832 411 1239 649
internal_value=0 -0.123102 0.178263 0.185062 0.00952588 0.158802 -0.0759324 -0.130573 -0.0437086 0.187817 -0.131545 0.18816 0.156812 0.0486165 0.0765323 -0.0369715 0.180301 0.135944 0.1107 0.141165 -0.131737 -0.117051 -0.122284 0.0392214 0.0934291 0.168832 0.0940928 0.120037 0.0546979 -0.109056
internal_weight=0 210493 142823 137291 5532.24 5434.13 3600.69 205059 2268.26 136087 202791 135939 8523.48 1834.95 920.918 537.707 4896.42 631.455 542.727 458.979 202670 11555.2 11274.9 156.49 280.311 1931.56 379.268 1269.41 411.064 3057.96
internal_count=1695288 1116421 578867 553012 25855 22247 17964 1094174 11095 546628 1083079 545845 34754 7954 3993 2561 19686 2599 2255 1870 1082597 61499 60071 822 1428 7891 1630 5089 1650 15709
is_linear=0
shrinkage=0.1


Tree=4
num_leaves=31
num_cat=0
split_feature=6 7 0 8 5 5 4 5 7 3 1 3 5 0 4 5 0 5 4 0 6 4 6 7 0 0 2 5 2 6
split_gain=652955 38391.6 13300.8 9642.81 6288.91 1919.7 1637.38 1593.39 1936.56 1209.43 1088.43 806.008 7777.04 608.11 470.615 470.895 453.834 341.763 329.029 283.415 307.471 281.797 272.325 262.538 1113.35 389.042 2179.31 302.621 248.201 224.913
threshold=0.83378520607948314 1.6228618621826174 inf 1.0000000180025095e-35 0.61633041501045238 0.80353248119354259 0.98395416140556347 0.97439289093017589 0.75098872184753429 3.5000000000000004 2.5000000000000004 2.5000000000000004 0.23983685672283175 13066.000000000002 0.28709951043128973 0.91839200258255016 16.500000000000004 0.47597426176071173 0.97665333747863781 34218.500000000007 0.042879225686192519 0.98760548233985912 0.018089647404849533 0.96371442079544078 560.50000000000011 35796.500000000007 1.5000000000000002 0.46789188683032995 2.5000000000000004 0.075615409761667265
decision_type=2 2 8 2 2 2 2 2 2 2 2 2 2 8 2 2 10 2 2 8 2 2 2 2 8 8 2 2 2 2
left_child=1 7 3 9 6 19 -4 10 -9 11 -1 -2 21 22 15 -6 28 18 -14 20 -3 -13 -10 -12 27 26 29 -25 -7 -26
right_child=2 5 4 -5 14 16 -8 8 13 -11 23 12 17 -15 -16 -17 -18 -19 -20 -21 -22 -23 -24 24 25 -27 -28 -29 -30 -31
leaf_value=0.17594923292342854 0.17494291120309649 -0.062853858789199496 -0.10682972268068246 -0.12168542263429072 -0.042128572975228033 0.13862167520381644 0.10988632503583723 -0.12422556873278137 0.024299478101916638 -0.12437619155992824 -0.12845609208277428 -0.12148258135906709 -0.036247718375940458 -0.045642266064424744 0.1674866582555673 0.14994522819581221 0.17138872701357222 0.173519765361558 0.15725584594767877 -0.11860139720808885 0.17729540918337189 0.035280911499591582 0.16731072019641058 0.0058788491000879945 -0.11217561653212563 -0.1276773300822866 0.29937775062318417 0.21998690663619738 -0.050014014030342939 0.078025164823416537
leaf_weight=118.24850979447365 118974.35043545067 129.03964899480343 2809.2544980049133 1128.1771080493927 245.95223951339722 133.6288968026638 398.02666169404984 1226.7529169768095 192.01721392571926 137.638293877244 178247.16445316374 988.98523397743702 153.30069187283516 321.92498292028904 1633.1980929970741 265.34502711892128 4597.7054626047611 13323.489535093307 205.89220014214516 254.73205003142357 90.849459230899811 129.70809476077557 434.33663137257099 188.7083203047514 2030.035862237215 8340.9486658722162 141.32161919772625 101.53088922798634 145.91867238283157 64.135491922497749
leaf_count=482 484544 587 15237 6384 1190 540 1650 6899 841 783 1021098 4984 681 1581 6675 1103 18663 54245 838 1336 381 553 1774 953 11458 47545 711 475 740 357
internal_value=0 -0.118982 0.16332 0.169448 0.00870558 0.145184 -0.0799351 -0.126368 -0.0412649 0.1719 -0.127346 0.172205 0.150198 0.0660583 0.141275 0.0575509 0.163867 0.170925 0.0746701 -0.0468058 0.0363663 -0.103306 0.123469 -0.127536 -0.112446 -0.117748 -0.0807016 0.0807777 0.0401573 -0.106351
internal_weight=0 196759 140393 135042 5351.78 5351.87 3207.28 191407 2175.03 133913 189232 133776 14801.4 948.279 2144.5 511.297 4877.25 13682.7 359.193 474.621 219.889 1118.69 626.354 189114 10866.7 10576.4 2235.49 290.239 279.548 2094.17
internal_count=1695288 1116421 578867 553012 25855 22247 16887 1094174 11095 546628 1083079 545845 61301 4196 8968 2293 19943 55764 1519 2304 968 5537 2615 1082597 61499 60071 12526 1428 1280 11815
is_linear=0
shrinkage=0.1


Tree=5
num_leaves=31
num_cat=0
split_feature=6 7 0 8 7 4 5 5 7 3 1 7 3 5 4 0 0 4 6 1 7 0 7 0 0 2 8 0 7 5
split_gain=558091 33477.4 11101.4 8047.62 5307.96 1607.47 1600.29 1473.28 1679.34 1009.24 947.337 730.178 5012.19 1929.84 536.359 499.474 406.922 311.847 298.26 266.576 310.461 261.28 260.392 987.365 348.907 1681.33 288.241 245.685 275.989 237.179
threshold=0.83378520607948314 1.6228618621826174 inf 1.0000000180025095e-35 1.3102748394012453 0.90624177455902111 0.8553207814693452 0.97439289093017589 0.75098872184753429 3.5000000000000004 2.5000000000000004 0.98105022311210643 2.5000000000000004 0.46789188683032995 0.95005935430526745 13066.000000000002 34218.500000000007 0.98587980866432201 0.042879225686192519 3.5000000000000004 0.5654430389404298 16.500000000000004 0.96371442079544078 830.50000000000011 35796.500000000007 1.5000000000000002 1.0000000180025095e-35 10140.500000000002 0.062568966299295439 0.94954884052276622
decision_type=2 2 8 2 2 2 2 2 2 2 2 2 2 2 2 8 8 2 2 2 2 10 2 8 8 2 2 10 2 2
left_child=1 7 3 9 5 -4 16 10 -9 11 -1 12 14 17 27 -10 18 -14 -3 -7 -21 -8 -12 26 25 -25 -24 -2 -29 -6
right_child=2 6 4 -5 29 19 21 8 15 -11 22 -13 13 -15 -16 -17 -18 -19 -20 20 -22 -23 23 24 -26 -27 -28 28 -30 -31
leaf_value=0.16369561750470538 0.13008890137742371 -0.039443747258982698 -0.10440199860210904 -0.11770532820508804 0.090429149814430398 0.16806338554846012 0.05377287343825865 -0.12028791794108669 0.1126512953523045 -0.12055946973198478 -0.12490082305902089 0.16349374209244497 -0.12239760869855154 0.13273903018033881 0.16286845011016449 -0.041909022778335303 -0.11268519918332381 0.0088262146752734923 0.16168984564232083 -0.068943951655102143 0.11661383665913801 0.15947141531171008 0.10171864862452169 -0.10345753402176057 -0.12403248273293417 0.23842751245561394 -0.12940843053953729 -0.061541115195074658 0.096925266249580075 0.16341482412441466
leaf_weight=114.57305932044983 1768.3647811114788 153.77944755554199 2627.5564176142216 1053.5469703674316 685.51729483902454 215.30692940950394 247.01542630791664 1144.4640639126301 618.44761991500854 128.27859610319138 165637.03160820901 107375.48659291863 912.80005718767643 543.00191706418991 18343.888652205467 315.87017565965652 271.03858612477779 225.9217404127121 141.62767998874187 173.49928030371666 187.72966089844704 4393.3894577920437 280.55915397405624 1925.9852540045977 7757.4652665555477 155.45494967699051 66.806203633546829 150.95755763351917 404.14184132218361 1270.3414766192436
leaf_count=482 7375 697 15206 6384 2890 887 1128 6899 2615 783 1021098 451000 4872 2255 77068 1581 1491 1003 597 799 781 18334 1338 11534 47545 700 382 611 1661 5292
internal_value=0 -0.11546 0.151889 0.15756 0.0080188 -0.0712235 0.134476 -0.12277 -0.0390777 0.159794 -0.123759 0.160071 0.143626 -0.0223895 0.157135 0.0603982 -0.0241999 -0.0963629 0.0569862 0.079987 0.0274899 0.153845 -0.123946 -0.108428 -0.114278 -0.0779234 0.0572677 0.11187 0.0538308 0.137834
internal_weight=0 183224 136066 130906 5159.95 3204.09 5206.85 178017 2078.78 129853 175938 129725 22349.1 1681.72 20667.4 934.318 566.446 1138.72 295.407 576.536 361.229 4640.4 175823 10186.3 9838.91 2081.44 347.365 2323.46 555.099 1955.86
internal_count=1695288 1116421 578867 553012 25855 17673 22247 1094174 11095 546628 1083079 545845 94845 8130 86715 4196 2785 5875 1294 2467 1580 19462 1082597 61499 59779 12234 1720 9647 2272 8182
is_linear=0
shrinkage=0.1


Tree=6
num_leaves=31
num_cat=0
split_feature=6 7 0 8 5 4 5 7 5 3 1 7 3 5 4 0 0 4 2 1 7 6 0 4 0 6 0 7 7 7
split_gain=481178 27597.1 11856.9 6829.49 5063.82 1486.32 1274.95 1368.65 1267.75 856.284 830.62 640.772 4254.05 1660.41 559.307 483.893 329.254 298.889 375.473 297.577 294.482 284.509 258.241 243.506 232.012 228.481 193.305 192.351 180.579 173.416
threshold=0.75740104913711559 1.6360965967178347 inf 1.0000000180025095e-35 0.72550383210182201 0.90048307180404674 0.97439289093017589 0.70309543609619152 0.81365695595741283 3.5000000000000004 2.5000000000000004 0.98105022311210643 2.5000000000000004 0.23983685672283175 0.32739312946796423 7466.5000000000009 35354.000000000007 0.43417593836784368 2.5000000000000004 4.5000000000000009 0.040459308773279197 1.842852830886841 10486.500000000002 0.0036744942190125589 18.500000000000004 0.83378520607948314 880.50000000000011 1.5617998838424685 1.9022201895713808 0.96371442079544078
decision_type=2 2 8 2 2 2 2 2 2 2 2 2 2 2 2 8 8 2 2 2 2 2 10 2 8 2 8 2 2 2
left_child=1 6 3 9 5 -4 10 -8 26 11 -1 12 14 -14 22 -9 -10 18 27 20 -7 -15 -2 -24 -12 -16 -3 -6 -18 -26
right_child=2 8 4 -5 17 19 7 15 16 -11 24 -13 13 21 25 -17 28 -19 -20 -21 -22 -23 23 -25 29 -27 -28 -29 -30 -31
leaf_value=0.15407760952362948 0.1125548341382404 0.15332030486920156 -0.10243829266226814 -0.11416927075569339 0.016302199633539956 -0.031535674961088632 -0.11795520746193905 0.11113117770465451 0.14897756752469637 -0.11720577012615488 0.039157609953953156 0.15383390997795698 -0.10625542263683851 0.0087456042393005279 0.53772752213095754 -0.035569410532305931 -0.022138209644615974 0.15349670030431317 -0.13330237915921692 -0.058665954098062967 0.15230629126655668 0.1455925889638261 0.13464081813733278 -0.054038759904680614 -0.12196259201764688 0.15080328402192419 -0.070152477960689505 0.15049877177517587 0.16145919290603275 -0.10796602290644873
leaf_weight=109.79573431611061 519.39593847095966 43.514255449175835 2938.5416053235531 984.06164045631886 169.86198498308659 115.49465294182301 1051.4072132706642 530.99951702356339 4034.1835569292307 119.53997953236103 90.329617559909821 103294.57985836267 947.07485850155354 230.56722123920918 15.273763298988341 389.97936645150185 180.87816572189331 1377.4956960082054 80.668677359819412 140.56907407939434 354.78178843855858 445.40917950868607 95.808817192912102 239.1012604534626 152937.31389939785 19031.842464625835 350.39234472811222 287.74383874237537 76.11512316763401 9395.9171025753021
leaf_count=482 2220 187 18125 6401 810 536 6812 2269 17497 785 443 452397 5249 1034 101 1940 848 5946 418 650 1486 1896 403 1033 1017800 83263 1867 1223 323 60844
internal_value=0 -0.113092 0.141982 0.14824 -0.00221596 -0.0729344 -0.119908 -0.039992 0.126226 0.150307 -0.120877 0.150563 0.134867 -0.0208047 0.147563 0.0490123 0.141986 0.128806 0.0656187 0.0689973 0.107157 0.0989158 0.0684059 -6.25782e-05 -0.121063 0.151114 -0.0454658 0.100685 0.0322388 -0.121152
internal_weight=0 169191 131388 125923 5465.16 3549.39 164506 1972.39 4685.08 124939 162533 124819 21524.5 1623.05 19901.4 920.979 4291.18 1915.77 538.275 610.846 470.276 675.976 854.306 334.91 162424 19047.1 393.907 457.606 256.993 162333
internal_count=1695288 1111312 583976 554782 29194 20797 1090590 11021 20722 548381 1079569 547596 95199 8179 87020 4209 18668 8397 2451 2672 2022 2930 3656 1436 1079087 83364 2054 2033 1171 1078644
is_linear=0
shrinkage=0.1


Tree=7
num_leaves=31
num_cat=0
split_feature=6 7 0 8 7 5 4 7 5 3 1 4 7 3 0 5 0 7 1 0 7 1 7 0 0 2 5 2 4 6
split_gain=417595 24298.1 10178.4 5835.9 4341.96 1420.22 1384.33 1281.23 967.846 731.669 730.306 603.868 1646.91 1025.99 467.867 397.087 375.219 372.176 370.006 257.438 255.185 269.773 222.112 993.749 258.575 998.369 255.586 196.102 385.143 189.769
threshold=0.75740104913711559 1.6651768684387209 inf 1.0000000180025095e-35 1.376635015010834 0.97030067443847667 0.82806611061096203 1.1399850845336916 0.91839200258255016 3.5000000000000004 2.5000000000000004 0.73844999074935924 0.99450281262397777 1.5000000000000002 16.500000000000004 0.54311484098434459 14874.000000000002 0.064313430339097991 3.5000000000000004 7338.5000000000009 0.040459308773279197 4.5000000000000009 0.96371442079544078 830.50000000000011 35354.000000000007 1.5000000000000002 0.46789188683032995 2.5000000000000004 0.82806611061096203 0.12409251928329469
decision_type=2 2 8 2 2 2 2 2 2 2 2 2 2 2 10 2 8 2 2 10 2 2 2 8 8 2 2 2 2 2
left_child=1 5 3 9 6 10 -4 18 16 11 -1 12 13 17 -9 -15 -3 19 -7 -2 -8 -22 -12 26 25 29 -24 -6 -29 -25
right_child=2 8 4 -5 27 7 20 14 -10 -11 22 -13 -14 15 -16 -17 -18 -19 -20 -21 21 -23 23 24 -26 -27 -28 28 -30 -31
leaf_value=0.14635563044855215 0.10955567295196807 0.074843298687853999 -0.099722882328250134 -0.11094443888434541 0.13847664128205636 0.14299381297981714 -0.052417660953680091 -0.07158934000701811 0.14267332007081676 -0.11419713150519989 -0.11929833693299496 0.14468786406305401 0.14054354781546155 -0.090844311179847023 0.11377053647511269 0.099936368110146279 -0.087654487252914914 0.14125679961774906 -0.10675232104960841 -0.075681942711924688 0.14323481715954997 -0.018560592986515915 -0.0031010698328197217 -0.10104842338256535 -0.11879411533681261 0.20553767067844453 0.17445363192845897 -0.10880260227612533 0.12678991821692517 0.11632595370007742
leaf_weight=104.31112644076347 135.5486920773983 323.56588082015514 2750.9597918987274 914.96577037870884 1485.0507942140102 62.338764756917953 149.1659263074398 178.680992141366 3723.7043834328651 110.8671238720417 141321.20291404426 111103.28526170552 5929.8987730741501 626.37445324659348 572.39935088157654 132.10769189894199 253.36968143284321 646.33309789001942 1225.5561055988073 168.03238719701767 357.14320552349091 144.85154235363007 218.35742588341236 1655.3488059937954 6713.4826539903879 117.58762381970882 128.94866958260536 101.49605378508568 219.3642603456974 41.160044029355049
leaf_count=482 596 1469 18075 6401 6636 294 744 912 16890 785 1017930 512052 27195 3625 2537 569 1426 2821 8104 738 1553 694 1176 11259 47485 519 586 511 981 243
internal_value=0 -0.110409 0.13469 0.140641 -0.00216411 -0.117026 -0.0686883 -0.0341281 0.124 0.142578 -0.118151 0.142818 0.11562 0.0291103 0.0696737 -0.0576153 0.00348002 0.0983584 -0.0946637 0.00702649 0.0624237 0.0965484 -0.118335 -0.102989 -0.109742 -0.0762439 0.0628219 0.123159 0.0522662 -0.0957746
internal_weight=0 156640 124975 119767 5208.03 152339 3402.12 2038.98 4300.64 118852 150300 118742 7638.3 1708.4 751.08 758.482 576.936 949.914 1287.89 303.581 651.161 501.995 150196 8874.89 8527.58 1814.1 347.306 1805.91 320.86 1696.51
internal_count=1695288 1111312 583976 554782 29194 1091527 21066 11847 19785 548381 1079680 547596 35544 8349 3449 4194 2895 4155 8398 1334 2991 2247 1079198 61268 59506 12021 1762 8128 1492 11502
is_linear=0
shrinkage=0.1


Tree=8
num_leaves=31
num_cat=0
split_feature=6 7 0 8 5 5 7 5 4 7 3 7 1 4 4 0 0 6 5 7 0 0 2 8 0 4 6 7 0 7
split_gain=364175 21459.8 8826.58 5021.8 3784.06 1132.1 1072.78 986.321 959.143 685.911 4788.89 652.109 644.705 463.164 418.106 378.435 359.332 343.459 339.263 218.375 880.347 238.82 790.754 234.991 202.557 209.144 200.94 199.4 230.487 186.777
threshold=0.75740104913711559 1.6360965967178347 inf 1.0000000180025095e-35 0.61269238591194164 0.97439289093017589 0.70309543609619152 0.91839200258255016 0.98395416140556347 0.85684365034103405 2.5000000000000004 0.45123709738254553 2.5000000000000004 0.32739312946796423 0.24570742249488833 560.50000000000011 14874.000000000002 1.8522510528564455 0.97030067443847667 0.96371442079544078 880.50000000000011 35354.000000000007 1.5000000000000002 1.0000000180025095e-35 7610.5000000000009 0.0058310383465141067 0.042879225686192519 1.2797138094902041 612.50000000000011 0.12612684816122058
decision_type=2 2 8 2 2 2 2 2 2 2 2 2 2 2 2 8 8 2 2 2 8 8 2 2 10 2 2 2 10 2
left_child=1 5 3 9 8 12 -7 16 29 10 13 -12 -1 24 18 -8 26 -13 -6 -14 23 22 -22 -21 -2 -26 -3 -17 -29 -4
right_child=2 7 4 -5 14 6 15 -9 -10 -11 11 17 19 -15 -16 27 -18 -19 -20 20 21 -23 -24 -25 25 -27 -28 28 -30 -31
leaf_value=0.14004432577400425 0.10717514906269417 -0.014538249030626916 -0.11235249585463457 -0.10798343663348853 -0.041829251703715958 -0.11235471056920809 0.14936751209695609 0.1323404883697849 0.076622791107985852 0.13940942921146104 -0.11229016061703195 -0.050076648093838154 -0.11699174476081704 0.1370221692196473 0.13191801383055887 -0.055984200721617187 -0.086555679729240914 0.11549583327293081 0.1240585198960573 0.088800458627973186 -0.092435135340686703 -0.1163801431629426 0.17904819035548275 -0.12180264678203079 0.12657435130821962 -0.045158809986516328 0.13941596528979439 -0.066963171542074804 0.11034935805556723 -0.053660792232100608
leaf_weight=98.414028465747833 370.70514719188213 162.51848390698433 1829.9027191847563 849.4320752620697 298.2536396086216 908.77613537013531 240.23137952387333 3656.1415955126286 372.44189710915089 95115.63379329443 883.45646940171719 257.49201458692551 130283.81131638587 15181.363851889968 1473.0815787911415 307.36712040007114 284.56763768196106 244.00964997708797 210.15063068270683 300.51096612215042 1575.6287626028061 6156.8238846361637 115.12838886678219 64.321103051304817 97.508283361792564 260.01687256991863 177.22983595728874 106.54951120913029 235.00379329919815 770.52712221443653
leaf_count=482 1683 749 12957 6401 1646 6812 1091 17475 1663 463611 5218 1377 1018084 73798 6930 1526 1681 1117 982 1443 11402 47250 484 424 429 1148 817 569 1023 5016
internal_value=0 -0.108065 0.128533 0.134248 -0.0021158 -0.11479 -0.0359484 0.112504 -0.0734656 0.136079 0.11776 -0.0605908 -0.115813 0.133285 0.104932 0.0421443 -0.00366002 0.030484 0.026741 -0.115995 -0.100179 -0.107238 -0.0739491 0.0516704 0.0553813 0.00167819 0.065772 0.0024501 0.0550357 -0.0949617
internal_weight=0 144673 118214 113260 4954.36 140393 1797.93 4280.46 2972.87 112410 17294.6 1384.96 138595 15909.6 1981.49 889.152 624.316 501.502 508.404 138496 8212.41 7847.58 1690.76 364.832 728.23 357.525 339.748 648.92 341.553 2600.43
internal_count=1695288 1111312 583976 554782 29194 1090590 11021 20722 19636 548381 84770 7712 1079569 77058 9558 4209 3247 2494 2628 1079087 61003 59136 11886 1867 3260 1577 1566 3118 1592 17973
is_linear=0
shrinkage=0.1


Tree=9
num_leaves=31
num_cat=0
split_feature=6 7 0 8 5 5 4 7 5 7 3 5 1 4 0 7 6 0 6 3 5 7 5 0 7 0 0 2 1 7
split_gain=319103 19041.4 7758.18 4353.81 3261.65 1244.36 1119.93 985.617 749.988 641.453 3671.93 1017.77 570.676 514.719 382.789 292.722 289.809 278.609 248.055 231.401 412.288 299.81 281.096 242.89 226.687 805.375 243.308 780.695 222.317 265.795
threshold=0.75740104913711559 1.6651768684387209 inf 1.0000000180025095e-35 0.76511430740356456 0.97030067443847667 0.82806611061096203 0.70309543609619152 0.91839200258255016 0.98105022311210643 2.5000000000000004 0.46789188683032995 2.5000000000000004 0.95005935430526745 15793.000000000002 0.3447249978780747 0.01794830430299044 880.50000000000011 1.9347379803657534 1.5000000000000002 0.22393713891506198 0.040459308773279197 0.0011571238283067944 5566.5000000000009 0.96371442079544078 880.50000000000011 913.50000000000011 1.5000000000000002 4.5000000000000009 0.040459308773279197
decision_type=2 2 8 2 2 2 2 2 2 2 2 2 2 2 8 2 2 8 2 2 2 2 2 10 2 8 10 2 2 2
left_child=1 5 3 9 6 12 -4 -7 17 10 13 18 -1 19 16 -13 -9 -3 -12 21 22 23 -21 -2 -14 -26 -27 -28 29 -8
right_child=2 8 4 -5 -6 7 28 14 -10 -11 11 15 24 -15 -16 -17 -18 -19 -20 20 -22 -23 -24 -25 25 26 27 -29 -30 -31
leaf_value=0.13481132118038835 0.11253912876205088 0.13481491282038205 -0.092468467005288074 -0.10522984246610632 0.1143925442838109 -0.1099312928858623 -0.037039096007755699 -0.0071717869828059611 0.12972645287240273 0.13434064648227903 -0.1045153874868779 -0.087442680796706335 -0.11496737407223012 0.13394511195974132 -0.05107084163130491 0.11104145957972283 0.13017926687756273 -0.035544061012380189 0.07292117072486301 0.0078868631369852418 0.1311962838516483 0.12841862866331827 -0.20854552042718266 -0.063235091375912697 0.046050744781501063 -0.11447419558539784 -0.090799954011169429 0.16546061028025127 -0.045769209868031659 0.13093225574385256
leaf_weight=92.324048221111298 145.820163205266 124.33327171206474 2462.7633117437363 787.68086592853069 1592.5907942503691 855.36690285801888 126.70134194195271 241.31512565910816 3344.8566384911537 87130.663559064269 952.58421292155981 88.714866973459721 119836.09693716466 14877.149025991559 333.30608876794577 457.3711157143116 422.72470715641975 421.24596877396107 85.892623513936996 325.08555868268013 252.73853649199009 1084.001008912921 73.59279665350914 170.5716952085495 373.13899973034859 5647.4949648529291 1538.7886329367757 128.83590794354677 166.47568760812283 367.3097787052393
leaf_count=482 710 599 18155 6401 7888 6939 641 1083 16890 452398 5764 628 1017930 77118 1827 2161 1998 2296 410 1564 1250 5265 339 774 1894 46955 11877 542 822 1688
internal_value=0 -0.105988 0.123441 0.129002 -0.00207113 -0.112538 -0.0614577 -0.0311729 0.111994 0.130749 0.113844 -0.0317227 -0.11372 0.12747 0.0363736 0.0787965 0.0802653 0.00327943 -0.0898396 0.0805168 0.0312777 0.103421 -0.0320648 0.0177766 -0.113899 -0.097254 -0.104564 -0.071002 0.0541727 0.0878519
internal_weight=0 133360 111148 106432 4715.84 129469 3123.25 1852.71 3890.44 105644 18513.5 1584.56 127617 16929 997.346 546.086 664.04 545.579 1038.48 2051.81 651.417 1400.39 398.678 316.392 127524 7688.26 7315.12 1667.62 660.487 494.011
internal_count=1695288 1111312 583976 554782 29194 1091527 21306 11847 19785 548381 95983 8963 1079680 87020 4908 2789 3081 2895 6174 9902 3153 6749 1903 1484 1079198 61268 59374 12419 3151 2329
is_linear=0
shrinkage=0.1


Tree=10
num_leaves=31
num_cat=0
split_feature=6 7 0 8 7 0 4 5 6 7 3 7 1 4 4 1 1 5 5 6 7 0 0 2 7 1 6 5 5 0
split_gain=280614 16943.4 6882.07 3795.29 2846.98 1312.37 1016.27 809.498 768.684 598.187 3262.54 901.905 506.949 497.342 380.086 368.805 313.604 303.376 243.374 205.738 189.179 639.714 195.111 535.708 185.163 348.641 282.847 201.448 183.182 181.58
threshold=0.75740104913711559 1.5959370136260989 inf 1.0000000180025095e-35 1.4211041927337649 35354.000000000007 0.82806611061096203 0.97030067443847667 0.042717352509498603 0.99450281262397777 2.5000000000000004 0.45123709738254553 2.5000000000000004 0.95005935430526745 0.97931754589080822 3.5000000000000004 4.5000000000000009 0.51967516541481029 0.99105140566825878 1.9042685627937319 0.96371442079544078 880.50000000000011 39470.000000000007 1.5000000000000002 0.12612684816122058 3.5000000000000004 0.98003295063972484 0.91719532012939464 0.46789188683032995 4114.0000000000009
decision_type=2 2 8 2 2 8 2 2 2 2 2 2 2 2 2 2 2 2 2 2 2 8 8 2 2 2 2 2 2 10
left_child=1 7 3 9 6 17 24 12 15 10 13 -12 -1 29 28 -9 -10 -3 -7 -8 -14 -22 23 -23 -4 26 -26 -27 -13 -2
right_child=2 5 4 -5 -6 18 19 8 16 -11 11 14 20 -15 -16 -17 -18 -19 -20 -21 21 22 -24 -25 25 27 -28 -29 -30 -31
leaf_value=0.13042094736945595 0.10249360026827936 -0.068938027955653569 -0.10927183397568263 -0.10263739303630673 0.1101211847390675 -0.08847690292415579 0.011161180863267756 0.10570352767067488 0.14038463824990527 0.12989762579393369 -0.10419882638614873 -0.091006299319788334 -0.11318066648551306 0.12940565119391498 0.11614570479019529 -0.096961378368073822 -0.053341147402256234 0.12277170021274444 0.058336640611720295 0.12970831330788285 0.034653293828347226 -0.088357255987406277 -0.11267770530541353 0.14106579032011624 -0.077355132942086402 -0.086339528873056293 0.292777370952785 0.13769014436533125 0.056125889249878075 0.042368534300383773
leaf_weight=86.203528583049774 1172.7273084521294 84.564203828573227 1547.1901817470789 729.80632518976927 1504.9830446839333 399.31724806129932 415.2604701295495 97.909890405833721 273.42678831517696 80994.843255370855 790.29209227114916 195.79811308532953 110055.95777183771 14247.997239679098 396.40807099640369 1083.0486728921533 120.33812795579433 3457.5395901203156 157.42691804468632 226.1112909168005 354.82739742100239 1411.0114542841911 5038.4080745056272 109.69009971618652 34.988570831716061 667.03554081916809 50.366224855184555 42.707455739378929 149.02327220141888 878.61455637216568
leaf_count=482 6086 451 12650 6401 7713 2761 2072 465 1400 450011 5218 1204 1017930 79006 1949 8299 760 18430 725 1090 1786 11685 45688 450 278 4810 388 193 688 4219
internal_value=0 -0.104129 0.119108 0.124569 -0.00201443 0.0957615 -0.0585766 -0.111036 -0.0398156 0.126247 0.109666 -0.0298796 -0.111994 0.122778 0.0493589 -0.080159 0.0811803 0.118195 -0.0469634 0.0529542 -0.112173 -0.0961276 -0.103202 -0.0718087 -0.0891162 -0.0498952 0.141053 -0.072859 -0.0274194 0.0767413
internal_weight=0 122730 104044 99555.5 4488.64 4098.85 2983.66 118631 1574.72 98825.7 17830.9 1531.52 117056 16299.3 741.229 1180.96 393.765 3542.1 556.744 641.372 116970 6913.94 6559.11 1520.7 2342.29 795.098 85.3548 709.743 344.821 2051.34
internal_count=1695288 1111312 583976 554782 29194 22367 21481 1088945 10924 548381 98370 9059 1078021 89311 3841 8764 2160 18881 3486 3162 1077539 59609 57823 12135 18319 5669 666 5003 1892 10305
is_linear=0
shrinkage=0.1


Tree=11
num_leaves=31
num_cat=0
split_feature=6 7 0 8 5 0 4 5 6 4 7 3 1 4 5 2 2 3 7 7 1 3 6 3 5 5 4 7 0 0
split_gain=247468 15109.2 6157.82 3322.62 2466.78 1609.9 652.302 582.221 662.178 580.182 1227.69 681.504 451.177 351.071 338.546 328.023 319.607 303.635 292.904 237.274 212.094 209.526 203.829 183.252 2110.09 180.335 182.944 179.305 177.968 160.445
threshold=0.75740104913711559 1.5617998838424685 inf 1.0000000180025095e-35 0.61269238591194164 16.500000000000004 0.99184492230415355 0.95669910311698925 0.042717352509498603 0.73844999074935924 0.99450281262397777 1.5000000000000002 2.5000000000000004 0.43417593836784368 0.51967516541481029 2.5000000000000004 2.5000000000000004 2.5000000000000004 0.064313430339097991 0.63856130838394176 4.5000000000000009 3.5000000000000004 1.9118350744247439 2.5000000000000004 0.12381811067461969 0.47597426176071173 0.96428793668746959 1.5617998838424685 18.500000000000004 7338.5000000000009
decision_type=2 2 8 2 2 10 2 2 2 2 2 2 2 2 2 2 2 2 2 2 2 2 2 2 2 2 2 2 8 10
left_child=1 7 3 9 6 16 22 12 17 10 11 18 -1 15 -7 27 -3 -9 29 -13 -10 23 -4 -11 -25 26 -26 -6 -14 -2
right_child=2 5 4 -5 13 14 -8 8 20 21 -12 19 28 -15 -16 -17 -18 -19 -20 -21 -22 -23 -24 24 25 -27 -28 -29 -30 -31
leaf_value=0.12670125782585634 0.083059284255929552 0.077479666440638736 -0.090460102394644165 -0.10016754884296963 -0.0034813197331981698 -0.066798679167316188 0.06737173113802529 0.073472381579321983 0.13012768254434101 0.12622561390266129 0.1183839455551514 -0.1095922427524807 0.047908200636412955 0.12041720311915985 0.11813192550546509 -0.12788717211356793 -0.094773794134821621 -0.099295504670271748 0.11808599747882623 0.0086989549350700232 -0.051431858878541695 -0.097080399059964254 0.080468702025017158 -0.093665618428358854 -0.060657797898669999 0.1251203177180592 0.10060644230108325 0.12143376819230063 -0.11071995122141538 -0.07072648788083262
leaf_weight=80.170913845300674 115.24843995273113 136.23169686645269 2126.2644048780203 675.80912410467863 217.86134234815836 101.99315817654133 322.84489716589451 112.68223164230585 232.07554803788662 76517.513735353947 4607.5515257418156 393.01806862652302 70.772987604141235 1176.99713511765 3364.0327649265528 112.73720804601908 514.60263837873936 1046.0749788284302 551.69310796260834 298.24786239862442 89.022358372807503 42.655535526573658 72.131177574396133 476.21249631047249 103.38651168346405 8615.3049511760473 220.12226848304272 243.17313049733639 107041.78764451295 164.92461538314819
leaf_count=482 596 647 17679 6401 1182 595 1538 586 1252 456675 27195 3075 413 6405 19007 704 3913 8736 2821 1496 642 408 419 2699 477 51089 1112 1267 1075039 738
internal_value=0 -0.102454 0.11535 0.120755 -0.00203724 0.0855922 -0.0653596 -0.109578 -0.0472821 0.122376 0.0926549 0.0148233 -0.110438 0.0891517 0.11269 0.0250158 -0.058718 -0.0824949 0.0757996 -0.0585553 0.0797915 0.124496 -0.0848518 0.124606 0.111441 0.122368 0.0490698 0.0624053 -0.110615 -0.00746712
internal_weight=0 112789 97053.7 92781.7 4272.01 4116.86 2521.24 108673 1479.86 92105.9 6130.68 1523.13 107193 1750.77 3466.03 573.772 650.834 1158.76 831.866 691.266 321.098 85975.2 2198.4 85932.5 9415.03 8938.81 323.509 461.034 107113 280.173
internal_count=1695288 1111312 583976 554782 29194 24162 19636 1087150 11216 548381 35921 8726 1075934 9558 19602 3153 4560 9322 4155 4571 1894 512460 18098 512052 55377 52678 1589 2449 1075452 1334
is_linear=0
shrinkage=0.1


Tree=12
num_leaves=31
num_cat=0
split_feature=6 7 0 8 7 0 7 0 5 4 7 3 1 6 4 6 5 7 7 2 6 4 0 2 3 7 3 7 5 5
split_gain=218775 13484.6 5520.09 2919.88 2198.34 1403.35 597.125 1434.27 597.032 558.886 1232.7 650.739 537.881 507.424 456.372 349.035 285.242 258.181 254.746 248.445 222.01 191.564 174.765 330.168 169.512 167.284 165.514 1739.1 277.018 165.164
threshold=0.75740104913711559 1.5617998838424685 inf 1.0000000180025095e-35 0.42600110173225408 35354.000000000007 0.98105022311210643 7338.5000000000009 0.94954884052276622 0.78192934393882763 0.99450281262397777 1.5000000000000002 4.5000000000000009 0.04512413032352925 0.1483263894915581 1.9803128838539126 0.51967516541481029 0.63856130838394176 0.064313430339097991 2.5000000000000004 0.00027483832673169678 0.99541831016540538 35354.000000000007 1.5000000000000002 2.5000000000000004 0.98105022311210643 2.5000000000000004 0.45123709738254553 0.048112737014889724 0.76078525185585033
decision_type=2 2 8 2 2 8 2 8 2 2 2 2 2 2 2 2 2 2 2 2 2 2 8 2 2 2 2 2 2 2
left_child=1 6 3 9 15 16 -1 13 12 10 11 18 14 20 -6 -4 -3 -13 -2 -7 -8 -14 23 -9 -15 -5 -11 -28 -29 -26
right_child=2 5 4 25 8 19 7 22 -10 26 -12 17 21 24 -16 -17 -18 -19 -20 -21 -22 -23 -24 -25 29 -27 27 28 -30 -31
leaf_value=-0.10996994854889815 -0.0026584551835192594 -0.061998511744851693 -0.091689724632360109 -0.10484387485069289 -0.022201753847346826 0.055938951602285951 0.071233488011810162 -0.073835865970069178 0.12361941403389652 0.12301015392128778 0.11525282325691054 -0.10611467312166796 -0.094563428407640857 0.15747956787952538 0.13304300436133426 0.14383092301273606 0.11428246474125091 0.01178682420195051 0.11346440522888637 -0.087165204122537324 -0.057499118114835296 0.074785661457535749 -0.10845098814033083 0.18781492131325694 -0.11761285737578496 0.28116686450323425 -0.08833256591375209 -0.098807245922527667 0.1201185366837922 0.10729366985318084
leaf_weight=93717.811374947429 283.60507591068745 94.563878610730171 1761.2082505077124 614.1854602843523 319.37186322361231 161.18258642405272 176.13756207376719 544.44609519839287 971.23145636916161 70164.392578423023 5143.0243928730488 413.04899724572897 388.89200776815414 273.91030275076628 465.15079040825367 65.254529610276222 3130.7844464033842 337.4847032353282 565.83684220910072 490.52515082061291 559.53804633021355 80.647332236170769 4218.1087526157498 52.914250716567039 52.697278961539268 11.435807749629019 427.35322700440884 58.210030660033226 8168.9396390095353 85.840020604431629
leaf_count=1029263 1389 563 15480 6284 2098 786 1288 4756 5715 451430 32616 3354 2682 1403 2503 333 18868 1720 3084 3945 4421 383 45017 223 298 117 2687 291 51810 481
internal_value=0 -0.100901 0.1121 0.117463 -0.00197082 0.0820702 -0.108018 -0.0773356 0.0647617 0.119037 0.091405 0.0147475 0.0191783 0.0230998 0.0698443 -0.0832752 0.109114 -0.0530991 0.0746942 -0.0517722 -0.0266776 -0.0654763 -0.101282 -0.0506588 0.111887 -0.0977879 0.121401 0.108353 0.11857 0.021743
internal_weight=0 103558 90239.3 86187.5 4051.76 3877.06 99681.4 5963.59 2225.29 85561.9 6743 1599.98 1254.06 1148.12 784.523 1826.46 3225.35 750.534 849.442 651.708 735.676 469.539 4815.47 597.36 412.448 625.621 78818.9 8654.5 8227.15 138.537
internal_count=1695288 1111312 583976 554782 29194 24162 1087150 57887 13381 548381 42163 9547 7666 7891 4601 15813 19431 5074 4473 4731 5709 3065 49996 4979 2182 6401 506218 54788 52101 779
is_linear=0
shrinkage=0.1


Tree=13
num_leaves=31
num_cat=0
split_feature=6 7 0 8 7 0 4 7 3 5 7 0 3 4 4 2 5 1 5 7 7 5 1 4 6 3 3 5 7 1
split_gain=193805 12078.9 4959.8 2576.12 1899.98 1766.36 544.986 1123.42 550.11 513.113 452.01 1061.29 436.026 409.554 351.426 292.301 291.922 281.468 278.299 227.815 227.364 211.918 202.165 176.218 161.791 160.295 159.999 1552.74 211.766 156.754
threshold=0.75740104913711559 1.4824146628379824 inf 1.0000000180025095e-35 0.5378178358078004 16.500000000000004 0.78192934393882763 0.99450281262397777 1.5000000000000002 0.94954884052276622 0.98105022311210643 6587.0000000000009 2.5000000000000004 0.82806611061096203 0.98855730891227733 2.5000000000000004 0.2368869632482529 3.5000000000000004 0.70770478248596203 0.064313430339097991 0.63856130838394176 1.0235062241554262 4.5000000000000009 0.1483263894915581 0.042717352509498603 1.5000000000000002 2.5000000000000004 0.16555157303810122 0.63856130838394176 3.5000000000000004
decision_type=2 2 8 2 2 10 2 2 2 2 2 8 2 2 2 2 2 2 2 2 2 2 2 2 2 2 2 2 2 2
left_child=1 10 3 6 14 15 7 8 19 13 -1 12 16 17 -4 -3 -12 -6 24 -2 -10 -14 23 -19 -7 -13 -8 -28 -29 -16
right_child=2 5 4 -5 9 18 26 -9 20 -11 11 25 21 -15 29 -17 -18 22 -20 -21 -22 -23 -24 -25 -26 -27 27 28 -30 -31
leaf_value=-0.10866527579262429 -0.0023916692875051828 0.065596578399249997 -0.093887390058296216 -0.095529263169980116 0.31558125094629985 -0.072699155588167058 0.12017943931210787 0.1118707867293451 -0.1015548673225935 0.11963838778261089 0.0058803680714773114 0.11317414621921028 -0.10068192701720741 0.091352175253661655 0.13253015882434796 -0.093003315998243422 0.14957768218300735 -0.034849731408385438 0.11213924360731012 0.10848605588319521 0.010631138141830712 0.061967340253921366 -0.10792275175170817 0.11895469937165347 0.12600965542114939 -0.10207412452265995 -0.075717746441262182 0.0041587531364772638 0.11838342491579741 -0.043589044548774589
leaf_weight=85765.466964118183 283.71058316528797 142.40109010785818 1568.1101974397898 579.46524998545647 22.805597044527531 133.73881021887064 64905.378639489412 4787.0408021658659 389.66423784941435 906.80878938734531 309.59785280376673 34.883146181702614 330.94553047418594 468.08641217648983 103.07552160322666 631.68562132865191 260.18379643559456 293.92353783547878 2986.228515945375 534.26835370063782 336.79293618351221 105.68770165741444 272.41955843567848 99.781594544649124 59.074255101382732 4221.0799513980746 447.83544501662254 165.92713216692209 7438.456413090229 99.146245509386063
leaf_count=1029263 1389 713 15226 6401 157 839 451430 32616 3354 5714 2338 238 2747 2564 535 5935 1494 1927 19176 3084 1720 539 2090 532 295 47735 2721 997 51070 449
internal_value=0 -0.0994882 0.109219 0.114552 -0.00188149 0.0716361 0.116088 0.0879448 0.0137852 0.0633159 -0.10692 -0.0784717 0.0138782 0.0191733 -0.0778876 -0.0638273 0.071498 -0.0298679 0.104621 0.0700289 -0.0495443 -0.0613124 -0.0416948 0.00413084 -0.0118186 -0.10031 0.11853 0.105234 0.115891 0.0461816
internal_weight=0 94981 83702.7 79868.5 3834.16 3953.13 79289.1 6331.48 1544.44 2063.83 91027.8 5262.38 1006.41 1157.02 1770.33 774.087 569.782 688.93 3179.04 817.979 726.457 436.633 666.125 393.705 192.813 4255.96 72957.6 8052.22 7604.38 202.222
internal_count=1695288 1111312 583976 554782 29194 26958 548381 42163 9547 12984 1084354 55091 7118 7270 16210 6648 3832 4706 20310 4473 5074 3286 4549 2459 1134 47973 506218 54788 52067 984
is_linear=0
shrinkage=0.1


Tree=14
num_leaves=31
num_cat=0
split_feature=6 7 0 8 7 0 4 5 3 4 6 7 0 6 3 5 1 7 0 5 5 6 7 3 6 6 5 3 7 7
split_gain=171980 10825.3 4476.98 2276.1 1660.2 1541.94 715.592 537.188 2531.04 533.338 460.317 459.234 859.646 376.962 320.299 322.571 298.091 351.827 266.643 261.081 237.413 221.18 183.932 174.603 166.457 158.435 240.365 141.653 138.305 138.1
threshold=0.75740104913711559 1.4824146628379824 inf 1.0000000180025095e-35 1.4824146628379824 35354.000000000007 0.32047891616821295 0.48292189836502081 2.5000000000000004 0.95005935430526745 1.9102661013603213 0.96371442079544078 6587.0000000000009 0.04512413032352925 1.5000000000000002 0.20033498853445056 4.5000000000000009 0.040459308773279197 16522.500000000004 0.99105140566825878 0.47597426176071173 1.8076305985450747 0.10533624887466432 3.5000000000000004 0.00027483832673169678 0.01794830430299044 0.9747862219810487 1.5000000000000002 0.98105022311210643 1.3295300006866457
decision_type=2 2 8 2 2 8 2 2 2 2 2 2 8 2 2 2 2 2 10 2 2 2 2 2 2 2 2 2 2 2
left_child=1 11 3 7 6 20 -4 8 9 14 29 -1 13 24 18 21 17 -8 -2 -7 -3 -16 -20 -9 -13 26 -22 -14 -5 -10
right_child=2 5 4 28 -6 19 16 23 10 -11 -12 12 27 -15 15 -17 -18 -19 22 -21 25 -23 -24 -25 -26 -27 -28 -29 -30 -31
leaf_value=-0.10755606632040715 0.10838980494428574 -0.051323387368361707 -0.085058366255670412 -0.10130404034618921 0.099855924203978666 -0.087486937298214995 -0.050069102022324098 0.11787850121549447 -0.098958304381384921 0.11667705044465318 0.073001443938518984 0.043750435316305188 0.10656314277738879 0.079688361006944472 -0.090825241494447817 0.10458181241853051 -0.057342609038939542 0.12050037746163569 -0.079093185960687748 0.056611144504762789 -0.025866766726423823 0.047463557418827747 0.097732117926780965 -0.092819021934328547 -0.066820144451330291 0.12032119916406428 0.10339811273370858 -0.10015661925978032 0.22678597963311431 0.067041031865452294
leaf_weight=78065.910080112517 1237.1451490074396 98.015931621193886 1661.9481507614255 523.32251851260662 1112.4940645471215 606.54441442340612 173.36870738863945 58723.399087011814 768.77005765587091 11297.869241729379 225.99848654866219 176.8863622173667 33.420540876686573 386.84934800863266 301.82587745785713 235.62069740891457 277.6056094840169 399.78750836849213 142.75210252404213 158.6169707775116 203.85534945130348 187.50892332196236 100.05851925909519 39.357099428772926 591.22939891368151 2157.6579953283072 488.69751377403736 4071.1130816787481 13.171916820108889 53.611382663249969
leaf_count=1025557 8162 662 16659 6284 7179 6017 1248 441413 5892 84934 1354 1383 238 2127 1699 1692 1799 2309 696 815 1197 1177 580 458 5196 14938 3329 49853 117 324
internal_value=0 -0.0981842 0.10665 0.111976 -0.00184761 0.0688734 -0.0468765 0.113478 0.0962761 0.107897 -0.0534003 -0.105629 -0.0770277 -0.000813694 0.0629097 0.00845303 0.027711 0.0689064 0.0895852 -0.0576156 0.101701 -0.0378342 -0.0062262 0.117737 -0.0413573 0.106964 0.0653485 -0.0984734 -0.0932488 -0.0881367
internal_weight=0 87038.8 77475.6 73850.4 3625.2 3713.39 2512.71 73313.9 14551.2 13502.8 1048.38 83325.4 5259.5 1154.97 2204.91 724.955 850.762 573.156 1479.96 765.161 2948.23 489.335 242.811 58762.8 768.116 2850.21 692.553 4104.53 536.494 822.381
internal_count=1695288 1111312 583976 554782 29194 26958 22015 548381 106510 98940 7570 1084354 58797 8706 14006 4568 5356 3557 9438 6832 20126 2876 1276 441871 6579 19464 4526 50091 6401 6216
is_linear=0
shrinkage=0.1


Tree=15
num_leaves=31
num_cat=0
split_feature=6 7 0 8 7 0 1 4 7 7 0 6 5 1 4 2 6 5 3 5 3 6 3 7 6 5 0 4 8 4
split_gain=152817 9716.25 4072.26 2018.02 1478.46 1350.12 556.217 538.852 860.296 471.956 830.377 591.031 454.758 373.882 318.785 252.026 233.488 319.779 195.014 210.095 187.984 182.824 175.697 1379.23 201.579 166.45 154.652 154.169 151.285 146.923
threshold=0.75740104913711559 1.4824146628379824 inf 1.0000000180025095e-35 0.12612684816122058 16.500000000000004 4.5000000000000009 0.73844999074935924 0.99450281262397777 0.96371442079544078 35354.000000000007 0.04512413032352925 0.97030067443847667 4.5000000000000009 0.1483263894915581 2.5000000000000004 0.019480216316878799 0.9747862219810487 1.5000000000000002 0.48292189836502081 2.5000000000000004 1.970065236091614 2.5000000000000004 0.63856130838394176 1.8950483202934267 0.46672590076923376 4595.0000000000009 0.99992153048515331 1.0000000180025095e-35 0.99541831016540538
decision_type=2 2 8 2 2 10 2 2 2 2 8 2 2 2 2 2 2 2 2 2 2 2 2 2 2 2 10 2 2 2
left_child=1 9 3 7 21 15 14 8 13 -1 11 18 29 26 -6 -3 17 -7 -11 -20 -21 -4 -9 24 -24 -13 -2 -17 -18 -8
right_child=2 5 4 -5 6 16 12 22 -10 10 -12 25 -14 -15 -16 27 28 -19 19 20 -22 -23 23 -25 -26 -27 -28 -29 -30 -31
leaf_value=-0.10648447056351223 0.086347696718450773 0.062169147209528069 -0.093736860651840503 -0.091102938221274049 0.016258384016932078 -0.035029972537715899 -0.092008319610628192 0.11549924633824703 0.1049442720250678 0.12183527302331076 -0.10483563916346406 0.010482750133778621 0.10377811361709875 -0.082906766851095146 0.11788758268491646 -0.095209316419924611 0.11863460894807139 0.098806588001580695 -0.089883169455988635 0.085622704633802962 -0.055133622180225855 0.13404501760210244 -0.09364299177648179 0.11144125507053365 0.042693502835159602 0.13513021703510125 0.0061680272032521282 0.29673823641898284 -0.12081934928173882 0.051690682505313938
leaf_weight=71311.571023836732 421.04153930395842 139.60287197679281 1238.196298956871 496.85975901037455 454.16362724453211 278.06452788412571 456.59276460856199 55848.691934868693 3440.6112794280052 61.020761162042618 3180.7715762928128 187.56977194547653 209.97606416046619 327.04899680614471 963.29610929638147 548.63582798838615 1983.9335516393185 498.71716265380383 836.32068219780922 152.31698889285326 251.62921080738306 36.26873867213726 385.91484954208136 6515.5567815378308 150.83520758897066 249.81289104372263 561.20886854827404 10.222545303404329 26.740236587822437 84.285305812954903
leaf_count=1025557 2559 713 13526 6401 3251 1735 3839 456675 27195 428 43733 1022 1458 3265 6502 5876 14765 3622 9243 1066 1939 192 2776 52142 867 1366 2902 59 188 426
internal_value=0 -0.0969522 0.104333 0.109694 -0.00177793 0.0663084 0.0484625 0.111169 0.078691 -0.104418 -0.0744602 -0.0188906 -0.0211261 0.00970209 0.0853249 -0.0580173 0.0974611 0.0508971 -0.0526925 -0.0612792 -0.00205829 -0.0872546 0.113621 0.0987483 -0.0553303 0.0816757 0.040537 -0.0880399 0.11545 -0.0696156
internal_weight=0 79716.9 71590.5 68147.8 3442.78 3485.92 2168.31 67650.9 4749.91 76231 4919.44 1738.67 750.854 1309.3 1417.46 698.461 2787.46 776.782 1301.29 1240.27 403.946 1274.47 62901 7052.31 536.75 437.383 982.25 558.858 2010.67 540.878
internal_count=1695288 1111312 583976 554782 29194 26958 15476 548381 35921 1084354 58797 15064 5723 8726 9753 6648 20310 5357 12676 12248 3005 13718 512460 55785 3643 2388 5461 5935 14953 4265
is_linear=0
shrinkage=0.1


Tree=16
num_leaves=31
num_cat=0
split_feature=6 7 4 7 8 0 7 0 6 1 5 5 3 6 0 6 4 1 5 5 5 6 0 3 5 0 3 5 7 7
split_gain=135950 8729.94 3736.44 1937.34 1816.36 1185.59 468.966 778.842 498.825 393.129 424.745 374.727 1686.58 370.525 330.642 313.008 223.485 299.011 375.07 215.709 205.319 262.441 173.762 169.451 192.49 151.485 151.375 144.758 135.682 132.225
threshold=0.75740104913711559 1.4824146628379824 0.26924027502536779 0.85684365034103405 1.0000000180025095e-35 35354.000000000007 0.96371442079544078 35354.000000000007 0.04512413032352925 4.5000000000000009 0.97030067443847667 0.51967516541481029 2.5000000000000004 1.8296360969543459 4862.5000000000009 1.9102661013603213 0.98760548233985912 3.5000000000000004 0.11957224458456041 0.99710997939109813 0.93424552679061901 0.042879225686192519 16.500000000000004 1.5000000000000002 0.48292189836502081 55.500000000000007 2.5000000000000004 0.34932897984981542 0.028349969536066059 0.013152810744941236
decision_type=2 2 2 2 2 8 2 8 2 2 2 2 2 2 8 2 2 2 2 2 2 2 10 2 2 8 2 2 2 2
left_child=1 6 3 14 11 20 -1 8 23 22 -11 12 13 16 -2 -14 17 29 25 -7 21 -3 -5 -8 -25 -19 -26 -10 -13 -4
right_child=2 5 4 9 -6 19 7 -9 27 10 -12 28 15 -15 -16 -17 -18 18 -20 -21 -22 -23 -24 24 26 -27 -28 -29 -30 -31
leaf_value=-0.10549930712668153 0.050135537016906664 -0.03328019951449851 -0.030038006105317705 0.029007803289499021 -0.091680230084477565 -0.076992409967440875 0.11941737513000619 -0.10359538191870253 0.0023201226775632715 -0.11709396486282042 0.096542496576947856 -0.097003328956245513 -0.074327942978823405 0.11290806772808559 -0.077930889201223721 0.058708009332199863 0.09996763991114245 -0.37744211120908516 0.085631638379600611 0.073704260072147129 0.10836438560790373 0.11843767795006571 0.10381015133368721 -0.087191238392576489 0.074821362854809739 -0.07077918079086698 -0.05105738462817129 0.12133607089577475 0.11395966949168046 0.11514618851505998
leaf_weight=65097.255300678313 228.91002720594406 254.42046138644218 75.239767640829086 383.15325054526329 450.06824034452438 578.50871250778437 56.274065896868706 2910.7908817529678 167.45521001517773 208.31669940799475 168.20796921104193 30.505472660064697 649.53904713690281 9332.2218416333199 1689.6977923214436 243.02549429982901 916.3997410684824 17.002098679542542 206.42811465263367 113.64575304090977 2113.5503077208996 206.59633044153452 1638.7542555704713 778.91129302233458 156.6283391341567 306.37809666246176 244.9097071364522 262.23260961472988 49154.226339042187 377.2914074882865
leaf_count=1025557 1720 1564 569 2496 5856 6240 428 43733 910 1742 1369 327 4982 81921 18153 1536 7530 114 1698 592 17205 1357 13746 9243 1066 2276 1939 1478 435120 2821
internal_value=0 -0.0958329 0.102191 0.0122485 0.108478 0.0639389 -0.103324 -0.0723842 -0.0178663 0.072164 -0.0216544 0.109947 0.0942003 0.104715 -0.0626512 -0.0381052 0.0644471 0.0313109 -0.0196783 -0.0522493 0.0951753 0.0347094 0.089635 -0.0501158 -0.0581978 -0.0869023 -0.00195574 0.0749539 0.113829 0.0910072
internal_weight=0 72941.2 66075.4 4317.04 61758.3 3266.72 69674.5 4577.2 1666.41 2398.43 376.525 61308.3 12123.5 11231 1918.61 892.565 1898.74 982.339 529.808 692.154 2574.57 461.017 2021.91 1236.72 1180.45 323.38 401.538 429.688 49184.7 452.531
internal_count=1695288 1111312 583976 39226 544750 26958 1084354 58797 15064 19353 3111 538894 103447 96929 19873 6518 15008 7478 4088 6832 20126 2921 16242 12676 12248 2390 3005 2388 435447 3390
is_linear=0
shrinkage=0.1


Tree=17
num_leaves=31
num_cat=0
split_feature=6 7 0 8 5 0 4 7 1 7 0 6 6 5 0 7 1 3 5 4 4 5 3 4 4 5 4 4 6 7
split_gain=121029 7856.29 3490.81 1601.86 1148.94 1039.94 534.807 859.253 735.822 467.201 731.099 464.639 420.537 314.037 257.778 234.583 216.754 166.95 163.45 158.962 313.671 157.615 1089.01 233.822 154.678 152.499 149.341 149.262 148.241 164.166
threshold=0.75740104913711559 1.4824146628379824 inf 1.0000000180025095e-35 0.79531854391098034 14874.000000000002 0.78192934393882763 1.376635015010834 4.5000000000000009 0.96371442079544078 35354.000000000007 1.8522510528564455 0.04512413032352925 0.99105140566825878 4114.0000000000009 0.067315943539142623 4.5000000000000009 2.5000000000000004 0.71621501445770275 0.0036744942190125589 0.0704648792743683 0.48292189836502081 2.5000000000000004 0.98587980866432201 0.054781462997198112 0.015704077668488029 0.22289381176233294 0.60048308968544017 1.7021914720535281 0.98105022311210643
decision_type=2 2 8 2 2 8 2 2 2 2 8 2 2 2 10 2 2 2 2 2 2 2 2 2 2 2 2 2 2 2
left_child=1 9 3 6 11 18 7 8 14 -1 12 15 -11 27 -2 -4 26 -13 -3 -16 24 22 -8 -24 -21 -25 -17 -7 29 -10
right_child=2 5 4 -5 -6 13 21 -9 28 10 -12 17 -14 -15 19 16 -18 -19 -20 20 -22 -23 23 25 -26 -27 -28 -29 -30 -31
leaf_value=-0.10458653212003917 0.094413956062141022 -0.0066039505434971396 -0.098326600694666325 -0.086729006090697225 0.085996483640380525 -0.083834601852739166 0.10747448785175616 0.1104456241738145 -0.092625237382049641 -0.047595967732618677 -0.10240997215414926 0.12173232138006292 0.068706297535649233 0.0626032928679605 0.10023458664353704 -0.026470376213343628 -0.086619459849670788 -0.070922160173122695 0.10413433899267965 -0.070704122861724589 0.035140959107806256 0.11276463011234619 -0.08198947475160262 -0.078612376094017514 -0.29208436483982697 0.082245579310552513 0.080551960957894575 0.15534877746046699 0.0082630634646958818 -0.27798868196282028
leaf_weight=59390.380767803639 836.26184915751219 142.35563480108976 914.75333549827337 429.2986606284976 987.17642346024513 566.32827319204807 9416.7012640535831 2877.3715993985534 252.23309616744518 1176.9258611053228 2662.7361245118082 205.90531897544861 422.521085716784 240.66829228401184 164.17460138350725 366.64523517340422 371.4492352232337 57.553653210401535 2092.4407725632191 121.13151907175779 413.1233591735363 42472.087311305106 349.96313215047121 80.914331577718258 42.681837096810341 216.97883789986372 202.34212524443865 27.350753948092461 107.95125710219145 58.944080077111721
leaf_count=1025557 6695 905 11607 6401 7553 6357 89974 26798 2816 12676 43733 1372 2388 1519 1054 3386 3571 471 17975 665 2545 411884 2517 491 218 1352 1234 202 969 403
internal_value=0 -0.0947566 0.100174 0.105719 -0.00310652 0.0615131 0.107159 0.0754704 0.0250639 -0.102291 -0.0703109 -0.0446237 -0.0168727 -0.0337538 0.0563577 -0.0622715 -0.0272011 0.0796462 0.0970804 0.0134154 -0.01129 0.110098 0.0988465 -0.0265624 -0.128385 0.038553 0.0115887 -0.0728154 -0.0927089 -0.127737
internal_weight=0 66721.7 60945.6 57839.8 3105.83 3069.14 57410.5 4873.87 1996.5 63652.6 4262.18 2118.65 1599.45 834.347 1577.37 1855.19 940.437 263.459 2234.8 741.111 576.937 52536.6 10064.6 647.856 163.813 297.893 568.987 593.679 419.128 311.177
internal_count=1695288 1111312 583976 554782 29194 26958 548381 42163 15365 1084354 58797 21641 15064 8078 11177 19798 8191 1843 18880 4482 3428 506218 94334 4360 883 1843 4620 6559 4188 3219
is_linear=0
shrinkage=0.1


Tree=18
num_leaves=31
num_cat=0
split_feature=6 7 4 7 8 0 7 0 6 1 7 5 1 2 7 3 4 6 7 6 4 0 6 5 5 3 4 0 0 8
split_gain=107842 8257.81 2310.28 1559.4 1068.53 989.458 565.912 710.26 576.429 313.286 590.714 304.636 440.19 273.197 262.301 1142.71 359.92 252.516 254.099 206.032 198.148 1979.13 2211.53 205.391 171.569 217.954 171.214 167.787 166.753 165.813
threshold=0.89071127772331249 1.4824146628379824 0.61750438809394848 0.85684365034103405 1.0000000180025095e-35 16.500000000000004 0.93618124723434459 34218.500000000007 0.04512413032352925 3.5000000000000004 0.064313430339097991 0.94954884052276622 4.5000000000000009 2.5000000000000004 1.0747648477554324 2.5000000000000004 0.98587980866432201 0.019480216316878799 1.8410598635673525 1.8296360969543459 0.73844999074935924 693.50000000000011 0.75740104913711559 0.97645828127861034 0.48292189836502081 1.5000000000000002 0.98760548233985912 55.500000000000007 15231.500000000002 1.0000000180025095e-35
decision_type=2 2 2 2 2 10 2 8 2 2 2 2 2 2 2 2 2 2 2 2 2 10 2 2 2 2 2 8 8 2
left_child=1 6 3 9 14 13 20 8 24 10 28 12 -5 -3 15 19 -17 18 -7 26 -1 -22 23 -23 25 -8 27 -4 -2 -10
right_child=2 5 4 11 -6 17 7 -9 29 -11 -12 -13 -14 -15 -16 16 -18 -19 -20 -21 21 22 -24 -25 -26 -27 -28 -29 -30 -31
leaf_value=-0.10427401102603827 0.036109036240271924 0.063327551565033599 -0.23130652688017081 0.06964095057756664 -0.081432169572676669 -0.033446581741557693 0.11976557444226571 -0.10071750367166217 0.08655727347596831 -0.088019598109567207 0.085352737031597403 0.11026801763329055 -0.085436109069973176 -0.083254889971254867 0.11098536750399313 -0.073025124635448566 0.052995788189547227 0.10958715864614382 0.090773939985362151 0.10975782636719869 -0.10034247300711695 1.7227720323226501 0.13030192437807103 0.35084035661621482 0.00054085135322112256 -0.087535467297737771 0.098828964457097934 0.038317133424086568 -0.092051385301806635 -0.11878007018383799
leaf_weight=53590.165883246809 127.26483574509621 171.0162376537919 24.050921425223351 1145.2225157618523 301.62431702017784 284.55706056207418 53.606045503169298 2625.2717518061399 474.39685026928782 765.65417750924826 435.68194299936295 1490.436419673264 217.85974774509668 495.68857596814632 40065.166341356933 483.29804205149412 426.74438529461622 1908.0813320055604 390.8553870767355 7855.8769455552101 555.5819242708385 13.124189022928475 34.517608754336834 1.1901892945170391 409.41886823251843 941.40211469307542 769.83685708045959 571.90210217237473 501.93389191478491 42.880872931331396
leaf_count=1013034 723 931 158 10015 4488 1859 429 46304 2948 9032 3467 14561 1716 6081 422361 3971 3094 17905 3498 81729 10279 249 205 6 3277 13863 7413 4941 6372 379
internal_value=0 -0.0922037 0.099991 0.032808 0.106223 0.0629576 -0.100789 -0.066903 -0.0207084 -0.0392313 -0.00415225 0.0790213 0.0448552 -0.0456551 0.10735 0.0929754 -0.0139304 0.0909866 0.0384388 0.103525 -0.103632 -0.0466952 0.563673 1.6087 -0.0539469 -0.0763671 0.0676771 0.0274359 -0.066129 0.0695354
internal_weight=0 61991.8 55182.6 4684.05 50498.5 3250.2 58741.6 4546.98 1921.7 1830.53 1064.88 2853.52 1363.08 666.705 50196.9 10131.7 910.042 2583.49 675.412 9221.67 54194.6 604.414 48.832 14.3144 1404.43 995.008 1365.79 595.953 629.199 517.278
internal_count=1695288 1121247 574041 45886 528155 30274 1090973 67200 20896 19594 10562 26292 11731 7012 523667 101306 7065 23262 5357 94241 1023773 10739 460 255 17569 14292 12512 5099 7095 3327
is_linear=0
shrinkage=0.1


Tree=19
num_leaves=31
num_cat=0
split_feature=6 7 0 8 7 0 5 3 4 5 7 6 3 1 6 5 5 0 7 1 4 7 6 7 5 1 6 4 0 4
split_gain=96174.9 6375.23 3028.06 1272.24 898.198 815.47 531.572 1578.77 562.719 498.137 416.165 391.836 332.89 299.206 267.952 255.295 253.472 240.981 227.553 207.83 731.161 617.873 216.748 205.753 160.344 154.755 149.388 128.266 126.905 123.188
threshold=0.75740104913711559 1.4824146628379824 inf 1.0000000180025095e-35 1.4824146628379824 14874.000000000002 0.48292189836502081 2.5000000000000004 0.95005935430526745 0.87895438075065624 0.54882359504699718 1.8522510528564455 1.5000000000000002 2.5000000000000004 1.9140490889549258 0.20033498853445056 0.99105140566825878 1330.5000000000002 0.064313430339097991 3.5000000000000004 0.2564570307731629 0.99450281262397777 0.029838632792234424 0.067315943539142623 0.71621501445770275 4.5000000000000009 1.9629199504852297 0.22289381176233294 2273.5000000000005 1.0518707036972048
decision_type=2 2 8 2 2 8 2 2 2 2 2 2 2 2 2 2 2 8 2 2 2 2 2 2 2 2 2 2 10 2
left_child=1 9 3 6 11 24 7 8 12 13 -11 23 18 -1 -9 -14 -7 -12 28 20 21 -15 -23 -4 -3 27 -5 -25 -2 -21
right_child=2 5 4 26 -6 16 -8 14 -10 10 17 -13 15 19 -16 -17 -18 -19 -20 29 -22 22 -24 25 -26 -27 -28 -29 -30 -31
leaf_value=0.1209064437037527 0.10825745687117874 -0.011107843313940435 -0.095446597159315055 -0.089445213359754819 0.08273286700672193 -0.068062737228454837 0.10916660743177498 -0.075354633529371842 0.10751366971780772 -0.099689923787420281 0.12185701679332291 0.074234814190791101 -0.055932483362064522 -0.096569433085407469 0.058404776583647747 0.089902818599329123 0.057645346587529601 -0.018092329035689574 0.10265938581915474 -0.1040552742022251 0.49193950448455387 -0.03011206091536163 0.11524217537412274 -0.027924234536350123 0.099129984712895955 -0.078081558982842955 0.47012251030936247 0.072691457906608234 -0.038146005114634673 0.040048916588247517
leaf_weight=60.28838349878788 81.079855911433697 142.33554355800152 801.02191821485758 365.86738492548466 830.82684560865164 538.63714444637299 38452.522896867245 674.48277759179473 7436.6051910594106 510.17785265296698 175.62260737270117 255.78724938631058 436.01008160412312 3765.0121141783893 192.50957347452641 165.63969938457012 228.42034229636192 410.93205328285694 845.05220468342304 47697.492262158543 22.180180214345455 243.10772542282939 177.4852997623384 370.73986905068159 1807.4330165833235 351.72961033880711 4.834038332104682 192.48162484169006 219.47617293894291 59.395815052092075
leaf_count=482 635 905 11692 6331 7179 6559 441871 6281 84934 9953 1272 1957 2876 76191 1289 1692 1519 4272 7614 986623 226 3357 980 3438 17975 3701 70 1227 1189 998
internal_value=0 -0.0926931 0.0966073 0.102404 -0.00447953 0.0567191 0.103814 0.0833379 0.0955152 -0.100335 -0.0336394 -0.0412276 0.0444481 -0.101741 -0.0456543 -0.0157827 -0.0306284 0.0238104 0.07608 -0.101999 -0.0806934 -0.0837279 0.0312257 -0.0584387 0.0910825 -0.026039 -0.0821483 0.0064613 0.0013487 -0.103876
internal_weight=0 55838.5 51676.7 48874.1 2802.59 2716.83 48503.4 10050.9 9183.86 53121.7 1096.73 1971.76 1747.26 52025 866.992 601.65 767.057 586.555 1145.61 51964.7 4207.79 4185.61 420.593 1715.97 1949.77 914.951 370.701 563.221 300.556 47756.9
internal_count=1695288 1111312 583976 554782 29194 26958 548381 106510 98940 1084354 15497 22015 14006 1068857 7570 4568 8078 5544 9438 1068375 80754 80528 4337 20058 18880 8366 6401 4665 1824 987621
is_linear=0
shrinkage=0.1


Tree=20
num_leaves=31
num_cat=0
split_feature=6 7 4 7 8 0 7 0 0 6 7 3 6 6 1 7 2 5 1 6 4 0 4 7 5 3 5 8 1 5
split_gain=85795 6687.58 2094.58 1230.11 859.839 783.492 570.285 639.735 569.117 441.943 275.111 1002.71 292.41 251.302 249.776 331.938 227.668 220.685 219.312 219.193 183.733 894.256 162.327 156.365 152.566 170.111 144.544 139.916 139.422 196.971
threshold=0.89071127772331249 1.4824146628379824 0.61750438809394848 1.4211041927337649 1.0000000180025095e-35 16.500000000000004 0.93618124723434459 34218.500000000007 4114.0000000000009 0.04512413032352925 1.0747648477554324 2.5000000000000004 1.8843951225280764 0.01794830430299044 4.5000000000000009 0.030892861075699333 2.5000000000000004 0.97645828127861034 4.5000000000000009 1.8296360969543459 0.73844999074935924 693.50000000000011 0.98760548233985912 0.98105022311210643 0.48292189836502081 1.5000000000000002 0.05332488380372525 1.0000000180025095e-35 3.5000000000000004 0.2368869632482529
decision_type=2 2 2 2 2 10 2 8 8 2 2 2 2 2 2 2 2 2 2 2 2 10 2 2 2 2 2 2 2 2
left_child=1 6 3 8 10 16 20 9 18 24 11 19 -13 17 15 -10 -3 -7 -2 22 -1 -22 -4 -6 25 -8 -14 -15 -17 -30
right_child=2 5 4 -5 23 13 7 -9 14 -11 -12 12 26 27 -16 28 -18 -19 -20 -21 21 -23 -24 -25 -26 -27 -28 -29 29 -31
leaf_value=-0.10281909424580143 0.089626404107907037 0.057829710357327715 0.021173993516998047 0.095570904444826188 -0.092178458500922017 -0.043693700688412856 0.11658066223652164 -0.098368936484330746 -0.087823227200587342 0.062638130273334994 0.10846434045155358 -0.065127066617075055 -0.068248303912650563 0.10844651610945569 -0.1073964507386044 0.058446747377322417 -0.079240756274313429 0.08111831050426388 -0.05232992033843481 0.10692216098384114 -0.098135698592377862 0.25850985909737306 0.094266462039963542 0.30068901699163852 0.0022057556745385606 -0.083057421130841302 0.085283092626190882 -0.12039991987059656 -0.10101156816017942 0.03310413664993999
leaf_weight=44496.071370087564 556.4995795711875 166.07428535073996 559.58785875886679 1666.1311386227608 253.94101057201624 245.06830084323883 45.039576467126608 2205.7221921496093 494.98088214173913 494.67209148406982 33586.739563092589 487.11897793412209 77.697610251605511 1654.5033002868295 471.01687292382121 397.0307048484683 448.21126850321889 335.74381244927645 135.28832422941923 6613.7154216170311 470.2777380682528 82.66328876465559 664.81817385554314 10.551859743893145 398.94967193901539 815.478460598737 290.91937396302819 27.155016109347343 187.86995821073651 262.53634581714869
leaf_count=1013034 5422 931 5099 18468 4385 1649 429 46304 6977 3327 422361 4194 518 18094 6155 3443 6081 3321 1884 81729 10279 460 7413 103 3277 13863 2353 198 1410 2127
internal_value=0 -0.0902109 0.0966057 0.0289819 0.103236 0.0579716 -0.098909 -0.0625249 -0.0153039 -0.0174533 0.10436 0.0885056 -0.0142764 0.0851647 -0.0447423 -0.0227587 -0.0421833 0.028455 0.061865 0.0997269 -0.102107 -0.0448181 0.0608612 -0.0765051 -0.0489102 -0.0726083 0.0529215 0.104751 0.015245 -0.0228372
internal_weight=0 51885.6 46716.4 4171.35 42545.1 2876.76 49008.9 3959.86 2505.22 1754.14 42280.6 8693.86 855.736 2262.47 1813.43 1342.42 614.286 580.812 691.788 7838.12 45049 552.941 1224.41 264.493 1259.47 860.518 368.617 1681.66 847.437 450.406
internal_count=1695288 1121247 574041 45886 528155 30274 1090973 67200 27418 20896 523667 101306 7065 23262 20112 13957 7012 4970 7306 94241 1023773 10739 12512 4488 17569 14292 2871 18292 6980 3537
is_linear=0
shrinkage=0.1


Tree=21
num_leaves=31
num_cat=0
split_feature=6 5 0 8 5 7 7 0 7 4 3 3 6 6 5 7 7 0 1 8 0 4 4 0 2 6 3 6 4 7
split_gain=76536.7 5262.31 2669.31 1015.79 829.645 816.52 562.472 753.864 506.376 1174.35 738.421 466.256 386.819 302.271 255.194 224.494 203.366 195.051 181.381 168.749 167.859 140.31 129.961 360.314 129.226 126.169 124.661 112.483 168.206 111.738
threshold=0.75740104913711559 0.94954884052276622 35354.000000000007 1.0000000180025095e-35 0.94954884052276622 0.54882359504699718 0.98105022311210643 39470.000000000007 1.2340549230575564 0.98395416140556347 2.5000000000000004 2.5000000000000004 1.8522510528564455 0.029838632792234424 0.84643518924713146 1.8120423555374148 0.048339709639549262 1330.5000000000002 4.5000000000000009 1.0000000180025095e-35 3082.5000000000005 0.22289381176233294 0.99184492230415355 1268.5000000000002 1.5000000000000002 0.19277970492839816 2.5000000000000004 1.7211397886276247 0.0058310383465141067 0.98105022311210643
decision_type=2 2 8 2 2 2 2 8 2 2 2 2 2 2 2 2 2 8 2 2 10 2 2 10 2 2 2 2 2 2
left_child=1 6 3 8 12 -3 22 11 9 10 20 13 16 24 -12 17 -4 -7 21 -15 -2 -18 -1 -24 -8 -19 -14 28 -22 -5
right_child=2 5 4 29 -6 15 7 -9 -10 -11 14 -13 26 19 -16 -17 18 25 -20 -21 27 -23 23 -25 -26 -27 -28 -29 -30 -31
leaf_value=-0.10216634397807048 0.080733065232700491 -0.096300690757629454 -0.094277877546039751 -0.090466191882658309 0.098715588817929911 0.1067961579219366 -0.032021988688482994 -0.097478263194952258 0.10747419220261732 0.10351186028777215 -0.084732698857625577 -0.097829337356117929 0.10312807670992018 0.10744237429413715 0.075588775795838642 0.10381051694581077 -0.027344813551929199 -0.018738264184555788 -0.078001695606248603 -0.11537182038650512 0.09999739214583124 0.065528476315005205 -0.088024998823662173 0.33206759530555341 0.18850193805895474 0.094420546975520853 -0.050207262692072152 0.074345175943062156 -0.028975827829756579 0.194489937001153
leaf_weight=40684.962625298649 1264.8195948973298 316.46936574578285 670.4075514189899 305.91048299893737 622.44693598523736 275.68405639007688 483.19005427509546 2100.1841149255633 30744.541437238455 7054.2208563908935 615.00276467204094 369.94801399111748 244.53658177703619 445.72685321420431 118.40016352757812 1216.7300936281681 452.8192309178412 469.32201577350497 403.7134508267045 36.796352911740541 129.14052405953407 253.87047573179007 96.168729554861784 25.919820375740528 28.119365781545639 124.71489220485091 67.699822761118412 297.09774053841829 466.07026982307434 14.408958077430723
leaf_count=1018350 14169 7235 11219 6227 6813 2627 5507 47322 423419 94085 6453 5018 2185 2990 1146 14509 4110 3930 4394 310 953 1918 2272 124 128 990 587 3026 3155 117
internal_value=0 -0.0907504 0.0933752 0.0997331 -0.00264286 0.0533753 -0.0985732 -0.0598856 0.10113 0.0815147 0.0278317 -0.00199389 -0.0327856 0.0336803 -0.0588505 0.0760779 -0.0507867 0.0372802 -0.0245288 0.090451 0.0573028 0.00601889 -0.101857 0.00116211 -0.0198943 0.00501883 0.0698816 0.0240911 -0.00099302 -0.077648
internal_weight=0 46673.9 43725.1 41009.6 2715.49 2402.92 44271 3463.96 40689.3 9944.75 2890.53 1363.78 2093.05 993.833 733.403 2086.45 1780.81 869.721 1110.4 482.523 2157.13 706.69 40807.1 122.089 511.309 594.037 312.236 892.309 595.211 320.319
internal_count=1695288 1111312 583976 552750 31226 29291 1082021 61275 546406 122987 28902 13953 24413 8935 7599 22056 21641 7547 10422 3300 21303 6028 1020746 2396 5635 4920 2772 7134 4108 6344
is_linear=0
shrinkage=0.1


Tree=22
num_leaves=31
num_cat=0
split_feature=6 7 4 0 7 8 0 7 0 5 3 6 5 6 2 5 1 7 3 7 7 1 3 4 0 3 4 1 5 7
split_gain=68328.3 5439.8 1881 1063.19 979.121 695.276 457.975 420.08 347.64 297.772 936.83 300.776 284.563 258.56 257.089 235.125 224.024 268.294 220.982 357.82 184.653 160.661 158.63 156.447 637.387 148.518 139.528 133.584 167.888 139.172
threshold=0.89071127772331249 1.376635015010834 0.61750438809394848 16.500000000000004 1.4824146628379824 1.0000000180025095e-35 4114.0000000000009 0.85684365034103405 7338.5000000000009 0.48292189836502081 2.5000000000000004 1.8296360969543459 0.48292189836502081 0.042879225686192519 2.5000000000000004 0.97439289093017589 4.5000000000000009 0.048339709639549262 1.5000000000000002 0.63856130838394176 0.40572184324264532 4.5000000000000009 1.5000000000000002 0.73844999074935924 693.50000000000011 2.5000000000000004 1.0240780115127566 3.5000000000000004 0.22393713891506198 0.20323524624109271
decision_type=2 2 2 10 2 2 8 2 8 2 2 2 2 2 2 2 2 2 2 2 2 2 2 2 10 2 2 2 2 2
left_child=1 7 4 14 6 9 21 23 12 10 11 18 22 15 -3 -5 17 -8 -4 -20 -12 -2 -9 -1 -25 -14 -16 29 -29 -19
right_child=2 3 5 13 -6 -7 16 8 -10 -11 20 -13 25 -15 26 -17 -18 27 19 -21 -22 -23 -24 24 -26 -27 -28 28 -30 -31
leaf_value=-0.10186389131443541 0.084730912152748347 0.052993469718309955 0.08318336092789734 -0.024709108256326641 0.093960724381082494 -0.071728524687340409 -0.077791813045557628 0.16474062137580375 -0.088337860040734018 0.10632663717471065 -0.092868426635956972 0.10432035005347967 0.11546743854353872 0.10821306239226719 -0.0892472998938309 0.082934347912891962 -0.10196464540916239 0.001363983351450445 -0.23532871872118313 0.02781061442969945 0.015568714994639313 -0.040282826251211351 -0.062602330301806106 -0.096068586937794784 0.21491437765358001 -0.0085219869271943808 0.27098869339507731 -0.09563564391965175 0.02717987576736889 0.12830995244716167
leaf_weight=36205.184918571264 511.51837804540992 176.94483650103211 661.76499006897211 355.89894273504615 1349.1257136464119 232.67356606572866 484.45562500879169 31.782077312469482 2446.3093856945634 28293.334028225392 280.73790754750371 5489.205739505589 174.82430609688163 1295.1648400947452 632.16809733957052 472.08199294656515 429.85374221205711 176.85408578813076 60.028798140585423 371.40705014020205 356.3914804123342 128.6564714834094 894.65995316952467 393.16987128555775 79.179573267698288 215.92750718444586 10.938014719635246 176.69794032722712 300.75338166207075 168.77595026046038
leaf_count=994730 5699 1169 7827 2712 17637 4488 7518 315 57974 425422 2733 80681 1275 16429 12124 5303 6255 1687 461 4056 2487 1938 16584 10264 422 1881 65 1318 2539 1295
internal_value=0 -0.0883005 0.0935237 0.0429578 0.0259157 0.100572 -0.0126958 -0.0978531 -0.0660362 0.101701 0.0835737 0.0947809 -0.0246172 0.0803108 -0.0537507 0.0366649 -0.0393371 -0.0187482 0.046881 -0.00880187 -0.0322119 0.0596068 -0.0548032 -0.101118 -0.0439388 0.0469515 -0.0831204 0.0160041 -0.0182724 0.0633535
internal_weight=0 43384.2 39472.2 2943.2 3726.69 35745.5 2377.57 40441 3763.5 35512.9 7219.54 6582.41 1317.19 2123.15 820.051 827.981 1737.39 1307.54 1093.2 431.436 637.129 640.175 926.442 36677.5 472.349 390.752 643.106 823.081 477.451 345.63
internal_count=1695288 1121247 574041 37802 45886 528155 28249 1083445 78029 523667 98245 93025 20055 24444 13358 8015 20612 14357 12344 4517 5220 7637 16899 1005416 10686 3156 12189 6839 3857 2982
is_linear=0
shrinkage=0.1


Tree=23
num_leaves=31
num_cat=0
split_feature=6 5 0 8 5 7 7 0 7 4 3 3 6 5 6 0 5 3 6 3 7 5 7 6 7 1 5 8 4 0
split_gain=60963.2 4362.39 2349.47 820.063 666.748 631.803 561.859 665.04 518.023 1081.51 608.387 387.175 300.924 238.89 230.597 217.899 192.62 531.984 202.293 192.036 167.709 159.339 169.198 150.273 147.331 143.815 138.171 136.023 134.445 636.529
threshold=0.75740104913711559 0.94954884052276622 35354.000000000007 1.0000000180025095e-35 0.94954884052276622 0.27734810113906866 0.98105022311210643 39470.000000000007 1.2340549230575564 0.98760548233985912 2.5000000000000004 2.5000000000000004 1.8522510528564455 0.83473917841911327 0.029838632792234424 1330.5000000000002 0.22393713891506198 1.5000000000000002 1.9118350744247439 2.5000000000000004 0.048339709639549262 0.0011571238283067944 0.61076548695564281 1.8950483202934267 0.029548431746661667 4.5000000000000009 1.2625286579132082 1.0000000180025095e-35 0.70299875736236583 693.50000000000011
decision_type=2 2 8 2 2 2 2 8 2 2 2 2 2 2 2 8 2 2 2 2 2 2 2 2 2 2 2 2 2 10
left_child=1 6 3 8 12 -3 28 11 9 10 16 14 20 23 -8 -7 17 24 21 -17 -4 22 -19 -12 -2 -22 -21 -16 -1 -30
right_child=2 5 4 -5 -6 15 7 -9 -10 -11 13 -13 -14 -15 27 19 -18 18 -20 26 25 -23 -24 -25 -26 -27 -28 -29 29 -31
leaf_value=-0.10127653994426467 5.4777521945226271e-05 -0.10104976408229766 -0.091184039179890944 -0.073152344105035669 0.094326324047721469 0.10608499441073881 -0.015623524758502967 -0.09522307627406329 0.10561629194364237 0.10397347456431794 -0.093142149755179579 -0.094015601052779244 0.063887349026366766 0.070438954666586007 0.098611238897145737 0.065487173713040789 0.10117371798251898 -0.16985758283117597 0.078357206169918717 -0.076726751506322979 0.0029625969882542524 -0.18636857654043901 0.0018491594009164341 0.025184464918382971 0.094136661710558012 -0.074353859364630223 0.083232453064805756 -0.11242047092772033 -0.094537643487873191 0.25691689297069559
leaf_weight=33420.210998605937 204.35458283871412 242.43919605761766 583.14328054711223 280.61205109581351 536.96760125085711 897.02537012845278 489.52182806283236 1781.3845270685852 25637.442720200866 5475.1333599090576 534.95266977697611 328.81370057165623 280.82618382945657 149.43905860558152 421.25099850073457 701.45581309124827 680.43911393731833 77.21799111366272 102.40210294350982 199.09484041109681 681.31466658040881 102.98572812229395 223.46677715331316 134.26733928918839 897.37453183159232 371.90435385331511 74.098371747881174 32.931121289730072 361.68590449914336 60.094529628753662
leaf_count=1009826 1552 6669 11219 6344 6813 12442 5635 47322 423419 87319 6173 5018 2772 1713 2990 7237 9928 518 1364 2254 6028 705 1866 1083 10766 4394 689 310 10655 265
internal_value=0 -0.0888567 0.0903765 0.0971015 -0.00416274 0.0508442 -0.0968614 -0.055782 0.0984977 0.077232 0.0301067 -0.000568733 -0.0317476 -0.0438752 0.0319909 0.0705191 0.0565751 0.0377004 -0.0471715 0.0377858 -0.0481601 -0.0790153 -0.0422464 -0.069402 0.0766859 -0.0243388 -0.0333409 0.0833101 -0.100568 -0.044463
internal_weight=0 39010 36954.2 34500.1 2454.16 2114.11 36895.9 3053.9 34219.5 8582.03 3106.9 1272.52 1917.19 818.659 943.704 1871.67 2288.24 1607.8 506.073 974.649 1636.36 403.67 300.685 669.22 1101.73 1053.22 273.193 454.182 33842 421.78
internal_count=1695288 1111312 583976 552750 31226 29291 1082021 61275 546406 122987 35668 13953 24413 8969 8935 22622 26699 16771 4453 10180 21641 3089 2384 7256 12318 10422 2943 3300 1020746 10920
is_linear=0
shrinkage=0.1


Tree=24
num_leaves=31
num_cat=0
split_feature=6 5 4 5 7 8 7 0 0 0 3 5 3 4 1 6 4 0 6 6 5 6 3 4 0 7 6 7 4 4
split_gain=54441.7 4470.79 1727.5 878.43 666.788 544.012 530.57 609.196 423.779 390.123 340.307 278.304 758.3 261.243 241.859 219.118 174.32 518.027 167.136 166.928 166.857 163.47 146.581 138.744 129.192 128.208 127.294 124.965 142.756 130.33
threshold=0.89071127772331249 0.87895438075065624 0.73844999074935924 0.83473917841911327 0.54882359504699718 1.0000000180025095e-35 0.98105022311210643 39470.000000000007 4114.0000000000009 15793.000000000002 2.5000000000000004 0.51967516541481029 2.5000000000000004 0.98760548233985912 4.5000000000000009 1.6596189141273501 0.73844999074935924 693.50000000000011 1.8296360969543459 0.018089647404849533 0.048112737014889724 0.046325026080012328 2.5000000000000004 0.3364656418561936 55.500000000000007 1.8808162808418276 1.0000000180025095e-35 0.030892861075699333 1.0000000180025095e-35 0.083068478852510466
decision_type=2 2 2 2 2 2 2 8 8 8 2 2 2 2 2 2 2 10 2 2 2 2 2 2 8 2 2 2 2 2
left_child=1 6 3 8 -3 11 16 10 22 19 21 12 13 18 15 27 -1 -18 24 26 -14 -8 -2 25 -4 -11 -6 -10 -29 -30
right_child=2 4 5 -5 9 -7 7 -9 14 23 -12 -13 20 -15 -16 -17 17 -19 -20 -21 -22 -23 -24 -25 -26 -27 -28 28 29 -31
leaf_value=-0.10071558477031682 0.081010268950844733 -0.09396470738685897 -0.21087129283017539 0.088414606238395491 0.077800726569460271 -0.065878775845311752 -0.0021261282694420309 -0.094069923317735948 -0.082267831591634977 -0.054622042409273708 -0.089631392781866326 0.10480611829361744 -0.088880213706020963 0.1028466029400158 -0.10873035881088039 0.075145401662661315 -0.093578739006902376 0.17747074996477297 0.08113539133315234 0.1048263655959617 0.018337943488290785 0.087310212802956741 -0.041548655143148983 0.097494425763916565 0.014194723941606797 0.077584652339671725 -0.025797674849705535 0.046806560307908723 -0.10293549134025032 0.0071943912614855568
leaf_weight=30548.544039204717 513.5679958127439 323.99557659216225 27.199326857924461 1410.1465526521206 289.51465994119644 199.53322414308786 508.62083411961794 1590.973063506186 378.70035406947136 412.13940211012959 302.88806757330894 23258.460829596967 247.81907016038895 4517.424046985805 377.52728448063135 212.24931390956044 331.54448002018034 89.557161077857018 613.04201044887304 1173.9994380064309 350.33959858864546 341.64075299724936 120.4794010296464 100.77862020209432 409.30039958655834 89.2330661714077 200.91255523636937 265.34428044036031 209.55424816906452 220.55271661281586
leaf_count=1011757 6520 9960 168 21161 3079 4332 5874 45548 6852 5552 4970 420351 2445 78758 6357 1961 10293 471 9781 17663 2714 2434 2012 851 4374 833 1962 2626 1709 1920
internal_value=0 -0.0863729 0.0906284 0.0262823 0.0402227 0.098683 -0.0961005 -0.0539566 -0.011845 0.0594041 0.00138668 0.0997989 0.080909 0.092405 -0.0383538 -0.0177 -0.0998347 -0.0359337 0.0474624 0.0843579 -0.0260829 0.03381 0.0577221 -0.00957139 0.00017033 -0.0310922 0.0353597 -0.036046 -0.0108764 -0.0464625
internal_weight=0 36304.3 33331.2 3708.12 2590.57 29623.1 33713.8 2744.12 2297.98 2266.58 1153.15 29423.6 6165.12 5566.97 1663.93 1286.4 30969.6 421.102 1049.54 1664.43 598.159 850.262 634.047 602.151 436.5 501.372 490.427 1074.15 695.451 430.107
internal_count=1695288 1121247 574041 51118 39900 522923 1081347 58826 29957 29940 13278 518591 98240 93081 21425 15068 1022521 10764 14323 22704 5159 8308 8532 7236 4542 6385 5041 13107 6255 3629
is_linear=0
shrinkage=0.1


Tree=25
num_leaves=31
num_cat=0
split_feature=6 5 0 7 8 7 0 7 7 4 3 6 8 6 7 6 0 7 5 3 1 6 2 4 6 6 0 3 4 2
split_gain=48568.4 3588.5 2113.06 682.116 648.317 561.649 508.521 487.802 453.803 905.924 455.586 302.69 248.829 224.318 209.238 192.508 182.387 165.46 160.704 472.946 148.271 147.697 144.627 136.527 134.431 133.319 624.038 133.354 726.617 352.601
threshold=0.75740104913711559 0.94954884052276622 26103.500000000004 1.6040265560150149 1.0000000180025095e-35 0.96371442079544078 39470.000000000007 0.27734810113906866 1.2340549230575564 0.98760548233985912 2.5000000000000004 1.9042685627937319 1.0000000180025095e-35 0.029838632792234424 1.8523280024528506 1.8296360969543459 560.50000000000011 0.03277536295354367 0.22393713891506198 1.5000000000000002 4.5000000000000009 1.9118350744247439 1.5000000000000002 0.22289381176233294 1.9326972365379336 0.37050890922546392 2035.5000000000002 2.5000000000000004 0.73844999074935924 2.5000000000000004
decision_type=2 2 8 2 2 2 8 2 2 2 2 2 2 2 2 2 8 2 2 2 2 2 2 2 2 2 10 2 2 2
left_child=1 5 4 11 8 25 12 -3 9 10 18 17 13 22 16 -12 -9 -4 19 -2 23 -21 -7 -19 -6 -1 -27 28 29 -28
right_child=2 7 3 -5 24 6 -8 14 -10 -11 15 -13 -14 -15 -16 -17 -18 20 -20 21 -22 -23 -24 -25 -26 26 27 -29 -30 -31
leaf_value=-0.10054551461383199 0.077697277014648625 -0.099777582416789717 -0.090418163497597751 0.088882619991749595 -0.083078517784973521 -0.039613918391688346 -0.092694051630700672 0.12486563751247781 0.10419435291849231 0.10244046227250379 -0.080397873798343719 0.072849115453719901 -0.10761205610807473 0.060536017916205748 0.099083009122798146 0.025563355488326046 0.005483088432022166 -0.030644279633217659 0.099050509413399074 -0.070799425426828419 -0.072224234517256222 0.071567346689335898 0.18371831730066657 0.054220904422894116 0.28637222544666996 -0.085229650836514279 0.95863538123497405 -0.080542460877473285 0.19330182737709697 2.8140599406505502
leaf_weight=27278.713619286194 929.19349580258131 202.18903842754662 513.89645614475012 673.40598174929619 232.2417960986495 609.64243417792022 1524.4514080490917 158.5779967866838 21110.480364788324 4542.0502716787159 437.46622759476304 260.01679071038961 213.02294221334159 497.3050304800272 860.44385235384107 281.97042728587985 663.02951464243233 487.86088280007243 566.55619572103024 392.56850845366716 400.70716118067503 89.480915207415819 30.444663316011429 310.03211947903037 10.285006407648323 529.0250090919435 4.0472779087722293 8.9457006677985174 39.503755569458008 1.371243469417095
leaf_count=997322 11832 6669 10855 10206 6021 9119 48008 2219 419151 86639 5553 3221 3964 3653 14037 2954 6366 4970 9795 3004 5299 1357 142 2949 170 19147 126 327 164 49
internal_value=0 -0.0869801 0.0874808 0.00198412 0.0953926 -0.0951921 -0.0531098 0.046978 0.0967854 0.0751801 0.0292746 -0.0276826 -0.00842412 0.0101529 0.0646186 -0.0388683 0.028525 -0.0429468 0.054062 0.036001 -0.0225936 -0.0443724 -0.0289915 0.00233124 -0.067411 -0.0995343 -0.0522126 0.27204 0.342253 1.42818
internal_weight=0 32620.7 31238.2 2645.92 28592.3 30736.5 2874.87 1884.24 28349.8 7239.29 2697.24 1972.51 1350.42 1137.39 1682.05 719.437 821.608 1712.5 1977.8 1411.24 1198.6 482.049 640.087 797.893 242.527 27861.6 582.893 53.868 44.9223 5.41852
internal_count=1695288 1111312 583976 37500 546476 1082021 64886 29291 540285 121134 34495 27294 16878 12914 22622 8507 8585 24073 25988 16193 13218 4361 9261 7919 6191 1017135 19813 666 339 175
is_linear=0
shrinkage=0.1


Tree=26
num_leaves=31
num_cat=0
split_feature=6 7 4 5 0 7 8 1 0 0 6 5 3 6 6 2 6 7 3 5 4 2 7 6 0 0 2 5 6 0
split_gain=43343.5 3721.36 1590 835.903 626.77 450.611 408.288 367.612 292.123 284.033 341.206 269.224 637.652 244.35 232.48 207.175 181.24 170.566 193.126 165.75 138.535 135.688 135.24 134.772 355.932 146.049 213.576 143.576 126.091 117.348
threshold=0.89071127772331249 1.376635015010834 0.78192934393882763 0.82605344057083141 16.500000000000004 0.83341684937477123 1.0000000180025095e-35 4.5000000000000009 4114.0000000000009 34218.500000000007 0.16341261565685275 0.51967516541481029 2.5000000000000004 1.8950483202934267 0.042879225686192519 2.5000000000000004 1.6596189141273501 0.99450281262397777 2.5000000000000004 0.98321595788002025 0.99141618609428417 1.5000000000000002 0.40572184324264532 0.28573822975158697 2035.5000000000002 1763.5000000000002 2.5000000000000004 0.75793015956878673 0.37050890922546392 88.500000000000014
decision_type=2 2 2 2 10 2 2 2 8 8 2 2 2 2 2 2 2 2 2 2 2 2 2 2 10 8 2 2 2 10
left_child=1 5 3 7 15 23 11 8 -2 10 17 12 13 20 19 -3 -10 21 -19 -6 -4 -7 -14 -1 25 26 27 -25 -26 -5
right_child=2 4 6 29 14 9 -8 -9 16 -11 -12 -13 22 -15 -16 -17 -18 18 -20 -21 -22 -23 -24 24 28 -27 -28 -29 -30 -31
leaf_value=-0.10042772980342828 0.072794464954718252 0.054044262154669322 0.011841603424185597 0.02184018863089127 -0.019794891726509847 -0.083433631404147571 -0.05842637243346066 -0.08792091325004249 -0.034217898623259378 -0.0939437685879978 0.067087105501006383 0.1035477014358553 -0.085157106410219258 0.10232917897177532 0.10297100546569263 -0.076571897784058929 0.06623511754673421 0.037732863046101559 -0.073195453209114011 0.076647465280843541 0.083335954783856261 0.81669517177207762 0.016560832233979646 -0.038006855795900324 0.76605560619010116 -0.09650135928313959 0.65738281997050629 0.45352287842461791 0.080302674053427794 0.098641379879768246
leaf_weight=23951.392788885161 519.5927853025496 160.34975317679346 533.10797818750143 238.26803090050817 365.10300244390965 819.2850839458406 167.930246129632 492.09147907048464 1020.6180271320045 1266.2581203952432 291.13215065188706 19079.176073327661 220.16143409907818 3604.5906938426197 941.27018931508064 500.37905388884246 217.96628871932626 346.41881997510791 286.95625327900052 348.11939206719398 551.31805634871125 1.6781125925481308 321.70941845327616 80.804755723103881 2.7426374256610861 932.28430875949562 5.2077521756291381 6.4144421592354766 119.92341950722039 1205.5572383515537
leaf_count=962614 7508 1169 6607 2285 3051 26478 4065 9006 13216 44416 2583 414923 2357 76030 16429 12189 2180 3836 4520 4964 9815 19 2476 2517 51 35023 48 111 1229 23573
internal_value=0 -0.0844014 0.087735 0.0265812 0.0374607 -0.0944381 0.096964 -0.0115222 0.00986084 -0.0578883 -0.0317317 0.0980374 0.0779393 0.0898082 0.0703411 -0.0448732 -0.0165402 -0.0515134 -0.0125242 0.027278 0.0481891 -0.0815937 -0.024767 -0.0988239 -0.0653439 -0.0846143 0.0352868 -0.00185783 0.0956351 0.0859672
internal_weight=0 30425.7 28172.1 3694.09 2315.22 28110.5 24478 2250.27 1758.18 3011.73 1745.47 24310.1 5230.89 4689.02 1654.49 660.729 1238.58 1454.34 633.375 713.222 1084.43 820.963 541.871 25098.8 1147.38 1024.71 92.427 87.2192 122.666 1443.83
internal_count=1695288 1121247 574041 57768 37802 1083445 516273 31910 22904 81852 37436 512208 97285 92452 24444 13358 15396 34853 8356 8015 16422 26497 4833 1001593 38979 37699 2676 2628 1280 25858
is_linear=0
shrinkage=0.1


Tree=27
num_leaves=31
num_cat=0
split_feature=6 5 4 7 7 7 0 7 1 4 0 0 3 1 7 6 4 0 7 6 4 2 3 4 7 6 4 6 6 8
split_gain=38633.5 3435.62 1520.37 766.107 511.46 493.889 462.434 400.574 950.132 410.206 310.123 294.103 251.89 182.464 181.686 176.036 169.224 484.561 155.633 155.349 147.103 135.106 118.321 114.35 119.766 155.782 111.313 109.006 108.257 104.434
threshold=0.89071127772331249 0.8641364872455598 0.78192934393882763 1.5617998838424685 0.98105022311210643 0.54882359504699718 16.500000000000004 0.98105022311210643 3.5000000000000004 0.98587980866432201 4114.0000000000009 15793.000000000002 2.5000000000000004 4.5000000000000009 0.63856130838394176 1.6596189141273501 0.54640412330627453 693.50000000000011 0.40572184324264532 0.01794830430299044 0.70299875736236583 1.5000000000000002 2.5000000000000004 1.0000000180025095e-35 0.067315943539142623 1.0000236630439761 0.3364656418561936 1.0000000180025095e-35 1.3150749802589419 1.0000000180025095e-35
decision_type=2 2 2 2 2 2 10 2 2 2 8 8 2 2 2 2 2 10 2 2 2 2 2 2 2 2 2 2 2 2
left_child=1 4 3 10 16 -3 -6 8 -4 14 22 19 21 15 -10 23 -1 -18 -11 27 -19 29 -2 24 -12 -26 -13 -7 -25 -8
right_child=2 5 7 -5 6 11 12 -9 9 18 13 26 -14 -15 -16 -17 17 20 -20 -21 -22 -23 -24 28 25 -27 -28 -29 -30 -31
leaf_value=-0.099325000992891002 0.072691447203157719 -0.091101169980701363 0.10272692552837913 0.091240468584385059 -0.090368253771033732 0.071185344220204949 0.022621515837933606 0.10261736334949452 -0.099800317246282771 -0.0098873285271881689 -0.059225039337630896 -0.028681356118879266 -0.085772893279670651 -0.090249456394279406 0.0055929808935815985 0.066090758249905554 -0.090446867021940991 0.72544238893543156 0.078076864450552771 0.1012568349930254 0.13277076258439335 0.1228423542623097 -0.025340577996488624 -0.080242039026403672 0.092699018936812594 -0.1041827811047019 0.091361279108379281 -0.0285807016100703 0.013428257509704583 -0.10900553316445678
leaf_weight=22883.795661246404 516.83214284479618 267.64652564935386 2978.819893874228 1172.5594490729272 1233.3204700965434 264.90408751741052 613.37718486040831 17830.817822996527 369.09220083430409 295.56818667054176 149.16490722075105 454.79414698295295 261.21287412010133 394.66338731348515 293.74042043834925 233.22426366433501 377.23019309714437 4.3844540379941455 629.54204178974032 943.63878791406751 93.408934641629457 124.88935351371765 161.62006435543299 478.42852477356791 203.06598029658198 50.105064954608679 93.050346340984106 186.70780634507537 166.25786969438195 66.84626136533916
leaf_count=1005505 8090 10806 67234 23749 45270 3127 6152 423943 5643 4102 3585 6487 5065 7123 3647 2418 15420 44 11704 17776 565 1164 2820 5966 2020 424 851 1954 1573 1061
internal_value=0 -0.0833627 0.0862407 0.0252038 -0.0936688 0.0362526 -0.0486716 0.0958494 0.0694239 0.00695091 -0.00769892 0.0537946 -0.000444866 -0.0308029 -0.0530943 -0.0124772 -0.0980987 -0.0390226 0.0499727 0.078173 0.159343 0.0272392 0.0493384 -0.0299782 0.0118549 0.0537342 -0.00829234 0.0299395 -0.0560855 0.00968639
internal_weight=0 27869.2 25923.5 3525.92 25658.5 2210.74 2299.65 22397.6 4566.76 1587.94 2353.36 1943.1 1066.33 1674.91 662.833 1280.25 23358.8 475.024 925.11 1395.25 97.7934 805.113 678.452 1047.02 402.336 253.171 547.844 451.612 644.686 680.223
internal_count=1695288 1121247 574041 57768 1080246 41001 58712 516273 92330 25096 34019 30195 13442 23109 9290 15986 1021534 16029 15806 22857 609 8377 10910 13568 6029 2444 7338 5081 7539 7213
is_linear=0
shrinkage=0.1


Tree=28
num_leaves=31
num_cat=0
split_feature=6 5 0 5 3 7 1 5 7 7 4 3 0 7 4 4 0 6 7 0 7 7 6 0 6 6 7 5 6 7
split_gain=34464.3 2408.88 2342.38 802.718 1320.22 682.437 475.961 428.629 383.854 370.847 351.358 287.463 784.79 270.155 1646.39 611.043 204.032 190.075 176.764 162.076 150.733 133.676 120.155 114.763 152.58 126.362 106.284 105.634 172.72 105.044
threshold=0.49518364667892462 0.93853321671485912 inf 0.48292189836502081 1.5000000000000002 0.63856130838394176 3.5000000000000004 0.94954884052276622 1.8120423555374148 0.99450281262397777 0.95951774716377269 1.5000000000000002 1049.5000000000002 0.03277536295354367 0.54640412330627453 0.26924027502536779 560.50000000000011 0.98003295063972484 0.053650259971618659 12164.500000000002 0.43093992769718176 0.12040054425597192 1.9494049549102785 5564.0000000000009 0.0002884962887037546 0.0069451141171157369 0.5378178358078004 0.71827551722526561 0.026670206338167194 0.66072040796279918
decision_type=2 2 8 2 2 2 2 2 2 2 2 2 10 2 2 2 8 2 2 10 2 2 2 8 2 2 2 2 2 2
left_child=1 6 3 4 19 22 9 17 16 11 29 12 20 -14 15 -15 -3 -4 -5 -2 -1 -21 -6 24 -11 -26 -18 -13 -29 -7
right_child=2 8 7 18 5 10 -8 -9 -10 23 -12 27 13 14 -16 -17 26 -19 -20 21 -22 -23 -24 -25 25 -27 -28 28 -30 -31
leaf_value=-0.069839862582377052 0.1023775433672935 0.11022134819272028 -0.073127527370975359 -0.091187318438154516 -0.090481189657669089 0.12052110062087701 -0.099068120945253385 0.078689370541946357 0.092702096975895459 0.20330773219759288 0.083563653587821571 -0.090155823045728778 0.24049772684640042 4.2780689667537777 0.23686871502510232 1.3943662379340465 -0.09779110861621168 -0.0080450241396094399 0.10164829735429526 -0.025387851872056055 1.1366815291361885 0.098992333264123586 0.072164035383469216 -0.040341327115491606 -0.10973576986301647 0.046149218108029758 -0.007593915419766107 0.0087681265134231228 1.0733869140718413 -0.031794025387500438
